<?xml version="1.0"?>
<opencv_storage>
<!-- Created using Computer Vision System Toolbox(tm) for MATLAB(R) -->
<!-- Version 9.5.0.944444 (R2018b) -->
<!-- Compatible with OpenCV 3.4 -->
<cascade>
  <stageType>BOOST</stageType>
  <featureType>HOG</featureType>
  <height>49</height>
  <width>32</width>
  <stageParams>
    <boostType>GAB</boostType>
    <minHitRate>9.9500000476837158e-01</minHitRate>
    <maxFalseAlarm>8.0000001192092896e-01</maxFalseAlarm>
    <weightTrimRate>9.4999999999999996e-01</weightTrimRate>
    <maxDepth>1</maxDepth>
    <maxWeakCount>100</maxWeakCount></stageParams>
  <featureParams>
    <maxCatCount>0</maxCatCount>
    <featSize>36</featSize></featureParams>
  <stageNum>21</stageNum>
  <stages>
    <!-- stage 0 -->
    <_>
      <maxWeakCount>2</maxWeakCount>
      <stageThreshold>-1.1059933155775070e-01</stageThreshold>
      <weakClassifiers>
        <_>
          <internalNodes>
            0 -1 10 7.9506322741508484e-02</internalNodes>
          <leafValues>
            -9.3523317575454712e-01 8.8947367668151855e-01</leafValues></_>
        <_>
          <internalNodes>
            0 -1 44 6.2427561730146408e-02</internalNodes>
          <leafValues>
            -9.3872427940368652e-01 8.2463383674621582e-01</leafValues></_></weakClassifiers></_>
    <!-- stage 1 -->
    <_>
      <maxWeakCount>3</maxWeakCount>
      <stageThreshold>-1.2026323080062866e+00</stageThreshold>
      <weakClassifiers>
        <_>
          <internalNodes>
            0 -1 28 5.6500189006328583e-02</internalNodes>
          <leafValues>
            -8.7765955924987793e-01 6.8999999761581421e-01</leafValues></_>
        <_>
          <internalNodes>
            0 -1 48 6.6829644143581390e-02</internalNodes>
          <leafValues>
            -8.7935090065002441e-01 5.8575367927551270e-01</leafValues></_>
        <_>
          <internalNodes>
            0 -1 21 8.5087353363633156e-03</internalNodes>
          <leafValues>
            5.5437821149826050e-01 -8.6090642213821411e-01</leafValues></_></weakClassifiers></_>
    <!-- stage 2 -->
    <_>
      <maxWeakCount>3</maxWeakCount>
      <stageThreshold>-1.2078582048416138e+00</stageThreshold>
      <weakClassifiers>
        <_>
          <internalNodes>
            0 -1 7 5.3030770272016525e-02</internalNodes>
          <leafValues>
            -9.2203897237777710e-01 4.7628864645957947e-01</leafValues></_>
        <_>
          <internalNodes>
            0 -1 20 6.8630171008408070e-03</internalNodes>
          <leafValues>
            4.7417277097702026e-01 -9.0202224254608154e-01</leafValues></_>
        <_>
          <internalNodes>
            0 -1 2 5.2709031850099564e-02</internalNodes>
          <leafValues>
            -7.5999206304550171e-01 6.3549560308456421e-01</leafValues></_></weakClassifiers></_>
    <!-- stage 3 -->
    <_>
      <maxWeakCount>3</maxWeakCount>
      <stageThreshold>-9.2915230989456177e-01</stageThreshold>
      <weakClassifiers>
        <_>
          <internalNodes>
            0 -1 1 3.0696816742420197e-02</internalNodes>
          <leafValues>
            -8.9337176084518433e-01 5.1528382301330566e-01</leafValues></_>
        <_>
          <internalNodes>
            0 -1 11 8.5429064929485321e-02</internalNodes>
          <leafValues>
            -6.6973608732223511e-01 6.8074768781661987e-01</leafValues></_>
        <_>
          <internalNodes>
            0 -1 3 9.7401514649391174e-02</internalNodes>
          <leafValues>
            -6.4593261480331421e-01 6.3395559787750244e-01</leafValues></_></weakClassifiers></_>
    <!-- stage 4 -->
    <_>
      <maxWeakCount>3</maxWeakCount>
      <stageThreshold>-1.1080453395843506e+00</stageThreshold>
      <weakClassifiers>
        <_>
          <internalNodes>
            0 -1 24 4.7959223389625549e-02</internalNodes>
          <leafValues>
            -9.0237098932266235e-01 6.0459768772125244e-01</leafValues></_>
        <_>
          <internalNodes>
            0 -1 43 2.5983029976487160e-02</internalNodes>
          <leafValues>
            -7.6716238260269165e-01 5.3845083713531494e-01</leafValues></_>
        <_>
          <internalNodes>
            0 -1 48 8.2065962255001068e-02</internalNodes>
          <leafValues>
            -7.4321830272674561e-01 5.6148797273635864e-01</leafValues></_></weakClassifiers></_>
    <!-- stage 5 -->
    <_>
      <maxWeakCount>3</maxWeakCount>
      <stageThreshold>-1.0467233657836914e+00</stageThreshold>
      <weakClassifiers>
        <_>
          <internalNodes>
            0 -1 26 3.3450160175561905e-02</internalNodes>
          <leafValues>
            -8.4916198253631592e-01 5.1376146078109741e-01</leafValues></_>
        <_>
          <internalNodes>
            0 -1 28 6.9743886590003967e-02</internalNodes>
          <leafValues>
            -7.3349791765213013e-01 6.9073462486267090e-01</leafValues></_>
        <_>
          <internalNodes>
            0 -1 32 3.1128402799367905e-02</internalNodes>
          <leafValues>
            -8.2698690891265869e-01 5.4991841316223145e-01</leafValues></_></weakClassifiers></_>
    <!-- stage 6 -->
    <_>
      <maxWeakCount>3</maxWeakCount>
      <stageThreshold>-1.2239203453063965e+00</stageThreshold>
      <weakClassifiers>
        <_>
          <internalNodes>
            0 -1 33 3.3304169774055481e-02</internalNodes>
          <leafValues>
            -8.1792318820953369e-01 4.2538976669311523e-01</leafValues></_>
        <_>
          <internalNodes>
            0 -1 47 2.7986451983451843e-02</internalNodes>
          <leafValues>
            -7.7267181873321533e-01 4.5929962396621704e-01</leafValues></_>
        <_>
          <internalNodes>
            0 -1 0 6.1621479690074921e-02</internalNodes>
          <leafValues>
            -8.7663823366165161e-01 4.1853857040405273e-01</leafValues></_></weakClassifiers></_>
    <!-- stage 7 -->
    <_>
      <maxWeakCount>3</maxWeakCount>
      <stageThreshold>-1.2451889514923096e+00</stageThreshold>
      <weakClassifiers>
        <_>
          <internalNodes>
            0 -1 10 1.2981906533241272e-01</internalNodes>
          <leafValues>
            -7.7427822351455688e-01 5.2820515632629395e-01</leafValues></_>
        <_>
          <internalNodes>
            0 -1 47 2.1669277921319008e-02</internalNodes>
          <leafValues>
            -8.7407785654067993e-01 4.0139937400817871e-01</leafValues></_>
        <_>
          <internalNodes>
            0 -1 8 8.1464238464832306e-03</internalNodes>
          <leafValues>
            4.0316712856292725e-01 -8.0698066949844360e-01</leafValues></_></weakClassifiers></_>
    <!-- stage 8 -->
    <_>
      <maxWeakCount>3</maxWeakCount>
      <stageThreshold>-1.0772355794906616e+00</stageThreshold>
      <weakClassifiers>
        <_>
          <internalNodes>
            0 -1 10 1.0743771493434906e-01</internalNodes>
          <leafValues>
            -8.4639495611190796e-01 3.0350193381309509e-01</leafValues></_>
        <_>
          <internalNodes>
            0 -1 16 4.3354608118534088e-02</internalNodes>
          <leafValues>
            -6.8044924736022949e-01 5.4014843702316284e-01</leafValues></_>
        <_>
          <internalNodes>
            0 -1 14 3.0886152759194374e-02</internalNodes>
          <leafValues>
            -7.0028829574584961e-01 4.8273283243179321e-01</leafValues></_></weakClassifiers></_>
    <!-- stage 9 -->
    <_>
      <maxWeakCount>4</maxWeakCount>
      <stageThreshold>-1.8415788412094116e+00</stageThreshold>
      <weakClassifiers>
        <_>
          <internalNodes>
            0 -1 11 9.1775134205818176e-02</internalNodes>
          <leafValues>
            -7.1576225757598877e-01 4.4973546266555786e-01</leafValues></_>
        <_>
          <internalNodes>
            0 -1 49 4.3194122612476349e-02</internalNodes>
          <leafValues>
            -7.8326660394668579e-01 3.6955571174621582e-01</leafValues></_>
        <_>
          <internalNodes>
            0 -1 12 1.3106999918818474e-02</internalNodes>
          <leafValues>
            3.9694374799728394e-01 -6.5344816446304321e-01</leafValues></_>
        <_>
          <internalNodes>
            0 -1 51 1.6033865511417389e-02</internalNodes>
          <leafValues>
            -8.8115787506103516e-01 3.1089818477630615e-01</leafValues></_></weakClassifiers></_>
    <!-- stage 10 -->
    <_>
      <maxWeakCount>3</maxWeakCount>
      <stageThreshold>-1.0769332647323608e+00</stageThreshold>
      <weakClassifiers>
        <_>
          <internalNodes>
            0 -1 22 4.5672967098653316e-03</internalNodes>
          <leafValues>
            5.9358286857604980e-01 -7.7892029285430908e-01</leafValues></_>
        <_>
          <internalNodes>
            0 -1 31 5.7089794427156448e-03</internalNodes>
          <leafValues>
            5.3402203321456909e-01 -7.1160370111465454e-01</leafValues></_>
        <_>
          <internalNodes>
            0 -1 8 9.0465759858489037e-03</internalNodes>
          <leafValues>
            4.3315646052360535e-01 -8.3203500509262085e-01</leafValues></_></weakClassifiers></_>
    <!-- stage 11 -->
    <_>
      <maxWeakCount>3</maxWeakCount>
      <stageThreshold>-1.2723935842514038e+00</stageThreshold>
      <weakClassifiers>
        <_>
          <internalNodes>
            0 -1 11 5.8368474245071411e-02</internalNodes>
          <leafValues>
            -8.0809593200683594e-01 3.1958761811256409e-01</leafValues></_>
        <_>
          <internalNodes>
            0 -1 49 4.8304654657840729e-02</internalNodes>
          <leafValues>
            -7.3829370737075806e-01 3.5792678594589233e-01</leafValues></_>
        <_>
          <internalNodes>
            0 -1 30 3.4276243299245834e-02</internalNodes>
          <leafValues>
            -8.2222443819046021e-01 3.0470404028892517e-01</leafValues></_></weakClassifiers></_>
    <!-- stage 12 -->
    <_>
      <maxWeakCount>3</maxWeakCount>
      <stageThreshold>-1.2316467761993408e+00</stageThreshold>
      <weakClassifiers>
        <_>
          <internalNodes>
            0 -1 5 3.4492179751396179e-02</internalNodes>
          <leafValues>
            -8.0344825983047485e-01 1.4335663616657257e-01</leafValues></_>
        <_>
          <internalNodes>
            0 -1 41 3.5230979323387146e-02</internalNodes>
          <leafValues>
            -7.8095865249633789e-01 2.9243609309196472e-01</leafValues></_>
        <_>
          <internalNodes>
            0 -1 40 1.8532235175371170e-02</internalNodes>
          <leafValues>
            -7.0527648925781250e-01 3.5276019573211670e-01</leafValues></_></weakClassifiers></_>
    <!-- stage 13 -->
    <_>
      <maxWeakCount>5</maxWeakCount>
      <stageThreshold>-1.5914067029953003e+00</stageThreshold>
      <weakClassifiers>
        <_>
          <internalNodes>
            0 -1 46 6.2410876154899597e-02</internalNodes>
          <leafValues>
            -8.0604135990142822e-01 2.3518164455890656e-01</leafValues></_>
        <_>
          <internalNodes>
            0 -1 19 1.5705687925219536e-02</internalNodes>
          <leafValues>
            -7.3860704898834229e-01 2.3636519908905029e-01</leafValues></_>
        <_>
          <internalNodes>
            0 -1 50 1.0395601391792297e-02</internalNodes>
          <leafValues>
            2.6614713668823242e-01 -8.0787885189056396e-01</leafValues></_>
        <_>
          <internalNodes>
            0 -1 6 9.8766222596168518e-02</internalNodes>
          <leafValues>
            -5.5026072263717651e-01 3.9540636539459229e-01</leafValues></_>
        <_>
          <internalNodes>
            0 -1 45 1.2353428639471531e-02</internalNodes>
          <leafValues>
            -8.3210736513137817e-01 3.3640894293785095e-01</leafValues></_></weakClassifiers></_>
    <!-- stage 14 -->
    <_>
      <maxWeakCount>3</maxWeakCount>
      <stageThreshold>-1.1622992753982544e+00</stageThreshold>
      <weakClassifiers>
        <_>
          <internalNodes>
            0 -1 46 5.6431747972965240e-02</internalNodes>
          <leafValues>
            -7.8713971376419067e-01 2.5373134016990662e-01</leafValues></_>
        <_>
          <internalNodes>
            0 -1 7 8.6135074496269226e-02</internalNodes>
          <leafValues>
            -5.7310318946838379e-01 4.3818354606628418e-01</leafValues></_>
        <_>
          <internalNodes>
            0 -1 48 6.8132154643535614e-02</internalNodes>
          <leafValues>
            -8.1334316730499268e-01 3.2396426796913147e-01</leafValues></_></weakClassifiers></_>
    <!-- stage 15 -->
    <_>
      <maxWeakCount>4</maxWeakCount>
      <stageThreshold>-1.2055189609527588e+00</stageThreshold>
      <weakClassifiers>
        <_>
          <internalNodes>
            0 -1 4 3.5327389836311340e-02</internalNodes>
          <leafValues>
            -7.5824177265167236e-01 3.0268198251724243e-01</leafValues></_>
        <_>
          <internalNodes>
            0 -1 16 5.9564009308815002e-02</internalNodes>
          <leafValues>
            -4.7482344508171082e-01 5.3257137537002563e-01</leafValues></_>
        <_>
          <internalNodes>
            0 -1 36 3.0165057629346848e-02</internalNodes>
          <leafValues>
            -6.0131800174713135e-01 3.8315388560295105e-01</leafValues></_>
        <_>
          <internalNodes>
            0 -1 38 4.0262192487716675e-02</internalNodes>
          <leafValues>
            -3.5560762882232666e-01 6.3952136039733887e-01</leafValues></_></weakClassifiers></_>
    <!-- stage 16 -->
    <_>
      <maxWeakCount>4</maxWeakCount>
      <stageThreshold>-9.0646952390670776e-01</stageThreshold>
      <weakClassifiers>
        <_>
          <internalNodes>
            0 -1 25 8.7042907252907753e-03</internalNodes>
          <leafValues>
            3.5955056548118591e-01 -8.3132529258728027e-01</leafValues></_>
        <_>
          <internalNodes>
            0 -1 7 4.9593150615692139e-02</internalNodes>
          <leafValues>
            -8.0546283721923828e-01 2.4858573079109192e-01</leafValues></_>
        <_>
          <internalNodes>
            0 -1 27 4.0712468326091766e-02</internalNodes>
          <leafValues>
            -5.8204132318496704e-01 4.3955191969871521e-01</leafValues></_>
        <_>
          <internalNodes>
            0 -1 42 2.7155501767992973e-02</internalNodes>
          <leafValues>
            2.9076668620109558e-01 -8.6482161283493042e-01</leafValues></_></weakClassifiers></_>
    <!-- stage 17 -->
    <_>
      <maxWeakCount>5</maxWeakCount>
      <stageThreshold>-1.2179113626480103e+00</stageThreshold>
      <weakClassifiers>
        <_>
          <internalNodes>
            0 -1 35 1.9162990152835846e-02</internalNodes>
          <leafValues>
            -6.9811320304870605e-01 5.6595742702484131e-01</leafValues></_>
        <_>
          <internalNodes>
            0 -1 34 3.1496264040470123e-02</internalNodes>
          <leafValues>
            -6.9857460260391235e-01 4.1516649723052979e-01</leafValues></_>
        <_>
          <internalNodes>
            0 -1 9 2.7759846299886703e-02</internalNodes>
          <leafValues>
            -7.6693457365036011e-01 4.0836012363433838e-01</leafValues></_>
        <_>
          <internalNodes>
            0 -1 16 3.8226298987865448e-02</internalNodes>
          <leafValues>
            -6.0064524412155151e-01 4.0369257330894470e-01</leafValues></_>
        <_>
          <internalNodes>
            0 -1 52 5.4352760314941406e-02</internalNodes>
          <leafValues>
            -8.4456020593643188e-01 2.8228560090065002e-01</leafValues></_></weakClassifiers></_>
    <!-- stage 18 -->
    <_>
      <maxWeakCount>2</maxWeakCount>
      <stageThreshold>-9.7765907645225525e-02</stageThreshold>
      <weakClassifiers>
        <_>
          <internalNodes>
            0 -1 13 1.8612425774335861e-02</internalNodes>
          <leafValues>
            -4.2105263471603394e-01 7.1638143062591553e-01</leafValues></_>
        <_>
          <internalNodes>
            0 -1 12 2.0577989518642426e-02</internalNodes>
          <leafValues>
            4.4654732942581177e-01 -8.1414735317230225e-01</leafValues></_></weakClassifiers></_>
    <!-- stage 19 -->
    <_>
      <maxWeakCount>4</maxWeakCount>
      <stageThreshold>-1.1509892940521240e+00</stageThreshold>
      <weakClassifiers>
        <_>
          <internalNodes>
            0 -1 23 1.0851560160517693e-02</internalNodes>
          <leafValues>
            7.0574712753295898e-01 -6.4864861965179443e-01</leafValues></_>
        <_>
          <internalNodes>
            0 -1 39 1.0617077350616455e-02</internalNodes>
          <leafValues>
            -6.2106782197952271e-01 4.8166283965110779e-01</leafValues></_>
        <_>
          <internalNodes>
            0 -1 29 6.9217188283801079e-03</internalNodes>
          <leafValues>
            5.1835256814956665e-01 -6.6036540269851685e-01</leafValues></_>
        <_>
          <internalNodes>
            0 -1 15 4.0216222405433655e-02</internalNodes>
          <leafValues>
            -5.7530319690704346e-01 4.9374449253082275e-01</leafValues></_></weakClassifiers></_>
    <!-- stage 20 -->
    <_>
      <maxWeakCount>3</maxWeakCount>
      <stageThreshold>-1.8186038359999657e-02</stageThreshold>
      <weakClassifiers>
        <_>
          <internalNodes>
            0 -1 37 3.6017306149005890e-02</internalNodes>
          <leafValues>
            7.4370712041854858e-01 -8.4615385532379150e-01</leafValues></_>
        <_>
          <internalNodes>
            0 -1 18 1.6925726085901260e-02</internalNodes>
          <leafValues>
            -6.6865855455398560e-01 5.6546467542648315e-01</leafValues></_>
        <_>
          <internalNodes>
            0 -1 17 1.1201856657862663e-02</internalNodes>
          <leafValues>
            -9.2137312889099121e-01 2.6250311732292175e-01</leafValues></_></weakClassifiers></_></stages>
  <features>
    <_>
      <rect>
        0 0 8 8 1</rect></_>
    <_>
      <rect>
        0 0 8 8 12</rect></_>
    <_>
      <rect>
        0 0 8 8 18</rect></_>
    <_>
      <rect>
        0 4 8 8 1</rect></_>
    <_>
      <rect>
        0 20 8 8 17</rect></_>
    <_>
      <rect>
        0 24 8 8 16</rect></_>
    <_>
      <rect>
        0 28 8 8 33</rect></_>
    <_>
      <rect>
        4 0 8 8 2</rect></_>
    <_>
      <rect>
        4 0 8 8 8</rect></_>
    <_>
      <rect>
        4 8 8 8 26</rect></_>
    <_>
      <rect>
        4 32 8 8 6</rect></_>
    <_>
      <rect>
        4 32 8 8 32</rect></_>
    <_>
      <rect>
        8 0 8 8 0</rect></_>
    <_>
      <rect>
        12 0 8 8 18</rect></_>
    <_>
      <rect>
        12 24 8 8 15</rect></_>
    <_>
      <rect>
        12 24 8 8 16</rect></_>
    <_>
      <rect>
        16 0 8 8 5</rect></_>
    <_>
      <rect>
        16 8 8 8 1</rect></_>
    <_>
      <rect>
        16 28 8 8 5</rect></_>
    <_>
      <rect>
        16 28 8 8 9</rect></_>
    <_>
      <rect>
        0 0 8 16 20</rect></_>
    <_>
      <rect>
        0 0 8 16 22</rect></_>
    <_>
      <rect>
        0 4 8 16 4</rect></_>
    <_>
      <rect>
        0 4 8 16 19</rect></_>
    <_>
      <rect>
        0 4 8 16 25</rect></_>
    <_>
      <rect>
        0 8 8 16 3</rect></_>
    <_>
      <rect>
        0 8 8 16 9</rect></_>
    <_>
      <rect>
        0 12 8 16 17</rect></_>
    <_>
      <rect>
        0 16 8 16 7</rect></_>
    <_>
      <rect>
        4 0 8 16 22</rect></_>
    <_>
      <rect>
        4 8 8 16 10</rect></_>
    <_>
      <rect>
        4 8 8 16 19</rect></_>
    <_>
      <rect>
        4 12 8 16 10</rect></_>
    <_>
      <rect>
        4 12 8 16 11</rect></_>
    <_>
      <rect>
        4 16 8 16 10</rect></_>
    <_>
      <rect>
        12 4 8 16 34</rect></_>
    <_>
      <rect>
        12 16 8 16 16</rect></_>
    <_>
      <rect>
        12 16 8 16 25</rect></_>
    <_>
      <rect>
        16 0 8 16 20</rect></_>
    <_>
      <rect>
        16 4 8 16 21</rect></_>
    <_>
      <rect>
        16 4 8 16 23</rect></_>
    <_>
      <rect>
        16 12 8 16 1</rect></_>
    <_>
      <rect>
        16 12 8 16 31</rect></_>
    <_>
      <rect>
        0 0 16 8 14</rect></_>
    <_>
      <rect>
        0 4 16 8 1</rect></_>
    <_>
      <rect>
        0 4 16 8 15</rect></_>
    <_>
      <rect>
        0 24 16 8 7</rect></_>
    <_>
      <rect>
        0 24 16 8 16</rect></_>
    <_>
      <rect>
        0 28 16 8 24</rect></_>
    <_>
      <rect>
        0 8 16 16 0</rect></_>
    <_>
      <rect>
        0 8 16 16 5</rect></_>
    <_>
      <rect>
        0 8 16 16 35</rect></_>
    <_>
      <rect>
        0 16 16 16 24</rect></_></features></cascade>
</opencv_storage>
