<?xml version="1.0"?>
<opencv_storage>
<!-- Created using Computer Vision System Toolbox(tm) for MATLAB(R) -->
<!-- Version 9.5.0.944444 (R2018b) -->
<!-- Compatible with OpenCV 3.4 -->
<cascade>
  <stageType>BOOST</stageType>
  <featureType>HOG</featureType>
  <height>50</height>
  <width>32</width>
  <stageParams>
    <boostType>GAB</boostType>
    <minHitRate>9.9500000476837158e-01</minHitRate>
    <maxFalseAlarm>5.0000000000000000e-01</maxFalseAlarm>
    <weightTrimRate>9.4999999999999996e-01</weightTrimRate>
    <maxDepth>1</maxDepth>
    <maxWeakCount>100</maxWeakCount></stageParams>
  <featureParams>
    <maxCatCount>0</maxCatCount>
    <featSize>36</featSize></featureParams>
  <stageNum>17</stageNum>
  <stages>
    <!-- stage 0 -->
    <_>
      <maxWeakCount>3</maxWeakCount>
      <stageThreshold>-1.1200184822082520e+00</stageThreshold>
      <weakClassifiers>
        <_>
          <internalNodes>
            0 -1 74 5.1100194454193115e-02</internalNodes>
          <leafValues>
            -9.0501320362091064e-01 7.7493607997894287e-01</leafValues></_>
        <_>
          <internalNodes>
            0 -1 39 4.6980079263448715e-02</internalNodes>
          <leafValues>
            -8.5732793807983398e-01 7.4384921789169312e-01</leafValues></_>
        <_>
          <internalNodes>
            0 -1 60 8.4697622805833817e-03</internalNodes>
          <leafValues>
            6.4232259988784790e-01 -8.4921038150787354e-01</leafValues></_></weakClassifiers></_>
    <!-- stage 1 -->
    <_>
      <maxWeakCount>3</maxWeakCount>
      <stageThreshold>-1.0428180694580078e+00</stageThreshold>
      <weakClassifiers>
        <_>
          <internalNodes>
            0 -1 70 5.5673632770776749e-02</internalNodes>
          <leafValues>
            -8.7362635135650635e-01 6.0095012187957764e-01</leafValues></_>
        <_>
          <internalNodes>
            0 -1 69 5.3230334073305130e-02</internalNodes>
          <leafValues>
            -7.8472828865051270e-01 5.7975924015045166e-01</leafValues></_>
        <_>
          <internalNodes>
            0 -1 0 3.8164619356393814e-02</internalNodes>
          <leafValues>
            -7.4895089864730835e-01 6.3876873254776001e-01</leafValues></_></weakClassifiers></_>
    <!-- stage 2 -->
    <_>
      <maxWeakCount>2</maxWeakCount>
      <stageThreshold>-3.4847402572631836e-01</stageThreshold>
      <weakClassifiers>
        <_>
          <internalNodes>
            0 -1 71 2.6285491883754730e-02</internalNodes>
          <leafValues>
            -9.0270268917083740e-01 6.9682151079177856e-01</leafValues></_>
        <_>
          <internalNodes>
            0 -1 65 9.9691860377788544e-03</internalNodes>
          <leafValues>
            5.5422866344451904e-01 -9.1558802127838135e-01</leafValues></_></weakClassifiers></_>
    <!-- stage 3 -->
    <_>
      <maxWeakCount>3</maxWeakCount>
      <stageThreshold>-1.0374997854232788e+00</stageThreshold>
      <weakClassifiers>
        <_>
          <internalNodes>
            0 -1 33 9.1292068362236023e-02</internalNodes>
          <leafValues>
            -7.8007763624191284e-01 5.8510637283325195e-01</leafValues></_>
        <_>
          <internalNodes>
            0 -1 25 5.0692051649093628e-02</internalNodes>
          <leafValues>
            -7.3528176546096802e-01 5.8770859241485596e-01</leafValues></_>
        <_>
          <internalNodes>
            0 -1 53 9.2362742871046066e-03</internalNodes>
          <leafValues>
            4.9362888932228088e-01 -8.4513080120086670e-01</leafValues></_></weakClassifiers></_>
    <!-- stage 4 -->
    <_>
      <maxWeakCount>4</maxWeakCount>
      <stageThreshold>-1.5264568328857422e+00</stageThreshold>
      <weakClassifiers>
        <_>
          <internalNodes>
            0 -1 8 3.3943731337785721e-02</internalNodes>
          <leafValues>
            -8.1842815876007080e-01 5.3771287202835083e-01</leafValues></_>
        <_>
          <internalNodes>
            0 -1 43 1.0736580193042755e-01</internalNodes>
          <leafValues>
            -6.3351565599441528e-01 7.6505923271179199e-01</leafValues></_>
        <_>
          <internalNodes>
            0 -1 50 2.4010129272937775e-02</internalNodes>
          <leafValues>
            -7.3663109540939331e-01 4.2943772673606873e-01</leafValues></_>
        <_>
          <internalNodes>
            0 -1 27 3.7772051990032196e-02</internalNodes>
          <leafValues>
            -5.0395071506500244e-01 7.3926949501037598e-01</leafValues></_></weakClassifiers></_>
    <!-- stage 5 -->
    <_>
      <maxWeakCount>6</maxWeakCount>
      <stageThreshold>-1.7353215217590332e+00</stageThreshold>
      <weakClassifiers>
        <_>
          <internalNodes>
            0 -1 36 6.0975551605224609e-02</internalNodes>
          <leafValues>
            -8.1388890743255615e-01 4.7319346666336060e-01</leafValues></_>
        <_>
          <internalNodes>
            0 -1 34 7.5565941631793976e-02</internalNodes>
          <leafValues>
            -5.4362452030181885e-01 7.4394106864929199e-01</leafValues></_>
        <_>
          <internalNodes>
            0 -1 41 2.4575995281338692e-02</internalNodes>
          <leafValues>
            -6.2751144170761108e-01 5.2428978681564331e-01</leafValues></_>
        <_>
          <internalNodes>
            0 -1 24 1.5243260189890862e-02</internalNodes>
          <leafValues>
            4.7303026914596558e-01 -6.5862613916397095e-01</leafValues></_>
        <_>
          <internalNodes>
            0 -1 63 4.4621340930461884e-02</internalNodes>
          <leafValues>
            -6.8294697999954224e-01 5.0809031724929810e-01</leafValues></_>
        <_>
          <internalNodes>
            0 -1 76 2.4395097047090530e-02</internalNodes>
          <leafValues>
            -7.2853887081146240e-01 4.3947517871856689e-01</leafValues></_></weakClassifiers></_>
    <!-- stage 6 -->
    <_>
      <maxWeakCount>5</maxWeakCount>
      <stageThreshold>-1.4010475873947144e+00</stageThreshold>
      <weakClassifiers>
        <_>
          <internalNodes>
            0 -1 81 3.8691025227308273e-02</internalNodes>
          <leafValues>
            -8.8813561201095581e-01 2.5223612785339355e-01</leafValues></_>
        <_>
          <internalNodes>
            0 -1 0 5.9776201844215393e-02</internalNodes>
          <leafValues>
            -6.2043702602386475e-01 4.9722456932067871e-01</leafValues></_>
        <_>
          <internalNodes>
            0 -1 68 6.0230664908885956e-02</internalNodes>
          <leafValues>
            -7.2743171453475952e-01 4.3757796287536621e-01</leafValues></_>
        <_>
          <internalNodes>
            0 -1 28 2.6681438088417053e-02</internalNodes>
          <leafValues>
            -5.6584596633911133e-01 4.9828109145164490e-01</leafValues></_>
        <_>
          <internalNodes>
            0 -1 37 2.5722496211528778e-02</internalNodes>
          <leafValues>
            -7.6190549135208130e-01 2.8314110636711121e-01</leafValues></_></weakClassifiers></_>
    <!-- stage 7 -->
    <_>
      <maxWeakCount>6</maxWeakCount>
      <stageThreshold>-1.6636353731155396e+00</stageThreshold>
      <weakClassifiers>
        <_>
          <internalNodes>
            0 -1 69 8.6651921272277832e-02</internalNodes>
          <leafValues>
            -6.8641972541809082e-01 5.1032447814941406e-01</leafValues></_>
        <_>
          <internalNodes>
            0 -1 17 1.0172083042562008e-02</internalNodes>
          <leafValues>
            4.8006978631019592e-01 -7.0777547359466553e-01</leafValues></_>
        <_>
          <internalNodes>
            0 -1 1 3.3736728131771088e-02</internalNodes>
          <leafValues>
            -5.7591772079467773e-01 4.0701633691787720e-01</leafValues></_>
        <_>
          <internalNodes>
            0 -1 44 7.1835495531558990e-02</internalNodes>
          <leafValues>
            -4.9139454960823059e-01 4.7713586688041687e-01</leafValues></_>
        <_>
          <internalNodes>
            0 -1 56 1.4179607853293419e-02</internalNodes>
          <leafValues>
            -6.4319407939910889e-01 4.0285488963127136e-01</leafValues></_>
        <_>
          <internalNodes>
            0 -1 67 6.4102306962013245e-02</internalNodes>
          <leafValues>
            -5.7778835296630859e-01 3.9501726627349854e-01</leafValues></_></weakClassifiers></_>
    <!-- stage 8 -->
    <_>
      <maxWeakCount>6</maxWeakCount>
      <stageThreshold>-1.8167765140533447e+00</stageThreshold>
      <weakClassifiers>
        <_>
          <internalNodes>
            0 -1 33 1.3355623185634613e-01</internalNodes>
          <leafValues>
            -6.6331660747528076e-01 4.1076487302780151e-01</leafValues></_>
        <_>
          <internalNodes>
            0 -1 4 2.2150982171297073e-02</internalNodes>
          <leafValues>
            -7.0464509725570679e-01 3.1134560704231262e-01</leafValues></_>
        <_>
          <internalNodes>
            0 -1 45 2.5973236188292503e-02</internalNodes>
          <leafValues>
            2.8932848572731018e-01 -8.1975847482681274e-01</leafValues></_>
        <_>
          <internalNodes>
            0 -1 8 4.0563032031059265e-02</internalNodes>
          <leafValues>
            -5.3919202089309692e-01 4.3146580457687378e-01</leafValues></_>
        <_>
          <internalNodes>
            0 -1 31 4.4663760811090469e-02</internalNodes>
          <leafValues>
            -7.0491939783096313e-01 3.2493820786476135e-01</leafValues></_>
        <_>
          <internalNodes>
            0 -1 10 3.8031354546546936e-02</internalNodes>
          <leafValues>
            -5.1375818252563477e-01 5.0596803426742554e-01</leafValues></_></weakClassifiers></_>
    <!-- stage 9 -->
    <_>
      <maxWeakCount>8</maxWeakCount>
      <stageThreshold>-1.6666016578674316e+00</stageThreshold>
      <weakClassifiers>
        <_>
          <internalNodes>
            0 -1 34 4.7328874468803406e-02</internalNodes>
          <leafValues>
            -7.5304877758026123e-01 2.2515213489532471e-01</leafValues></_>
        <_>
          <internalNodes>
            0 -1 7 3.8565330207347870e-02</internalNodes>
          <leafValues>
            -6.2175494432449341e-01 3.4333199262619019e-01</leafValues></_>
        <_>
          <internalNodes>
            0 -1 77 4.2286500334739685e-02</internalNodes>
          <leafValues>
            -4.1929298639297485e-01 5.1476347446441650e-01</leafValues></_>
        <_>
          <internalNodes>
            0 -1 27 3.6593422293663025e-02</internalNodes>
          <leafValues>
            -4.1542330384254456e-01 5.3310501575469971e-01</leafValues></_>
        <_>
          <internalNodes>
            0 -1 83 4.9467284232378006e-02</internalNodes>
          <leafValues>
            -6.2157940864562988e-01 4.1552054882049561e-01</leafValues></_>
        <_>
          <internalNodes>
            0 -1 55 9.6008162945508957e-03</internalNodes>
          <leafValues>
            2.0000290870666504e-01 -7.4967640638351440e-01</leafValues></_>
        <_>
          <internalNodes>
            0 -1 47 1.1133642867207527e-02</internalNodes>
          <leafValues>
            -6.1405813694000244e-01 2.9166293144226074e-01</leafValues></_>
        <_>
          <internalNodes>
            0 -1 25 8.0997556447982788e-02</internalNodes>
          <leafValues>
            -4.2112496495246887e-01 4.6397882699966431e-01</leafValues></_></weakClassifiers></_>
    <!-- stage 10 -->
    <_>
      <maxWeakCount>8</maxWeakCount>
      <stageThreshold>-1.3222562074661255e+00</stageThreshold>
      <weakClassifiers>
        <_>
          <internalNodes>
            0 -1 33 1.4911872148513794e-01</internalNodes>
          <leafValues>
            -6.1165046691894531e-01 3.7230768799781799e-01</leafValues></_>
        <_>
          <internalNodes>
            0 -1 35 2.8966229408979416e-02</internalNodes>
          <leafValues>
            -6.4075827598571777e-01 2.8309056162834167e-01</leafValues></_>
        <_>
          <internalNodes>
            0 -1 82 1.0031629353761673e-02</internalNodes>
          <leafValues>
            -7.7537018060684204e-01 2.1876251697540283e-01</leafValues></_>
        <_>
          <internalNodes>
            0 -1 12 2.7148468419909477e-02</internalNodes>
          <leafValues>
            -4.9572187662124634e-01 3.3020389080047607e-01</leafValues></_>
        <_>
          <internalNodes>
            0 -1 42 1.3952247798442841e-02</internalNodes>
          <leafValues>
            -6.8488568067550659e-01 2.4969176948070526e-01</leafValues></_>
        <_>
          <internalNodes>
            0 -1 64 1.5883956104516983e-02</internalNodes>
          <leafValues>
            2.0109710097312927e-01 -7.4654507637023926e-01</leafValues></_>
        <_>
          <internalNodes>
            0 -1 7 6.7595377564430237e-02</internalNodes>
          <leafValues>
            -3.2517904043197632e-01 4.6269491314888000e-01</leafValues></_>
        <_>
          <internalNodes>
            0 -1 72 3.1065586954355240e-02</internalNodes>
          <leafValues>
            -8.2117921113967896e-01 2.0321843028068542e-01</leafValues></_></weakClassifiers></_>
    <!-- stage 11 -->
    <_>
      <maxWeakCount>6</maxWeakCount>
      <stageThreshold>-1.8076512813568115e+00</stageThreshold>
      <weakClassifiers>
        <_>
          <internalNodes>
            0 -1 33 1.0182920098304749e-01</internalNodes>
          <leafValues>
            -7.4018943309783936e-01 4.0000000596046448e-01</leafValues></_>
        <_>
          <internalNodes>
            0 -1 53 4.8604570329189301e-03</internalNodes>
          <leafValues>
            4.2365145683288574e-01 -6.2106889486312866e-01</leafValues></_>
        <_>
          <internalNodes>
            0 -1 52 1.3321211561560631e-02</internalNodes>
          <leafValues>
            3.9173021912574768e-01 -5.8671933412551880e-01</leafValues></_>
        <_>
          <internalNodes>
            0 -1 73 3.2875344157218933e-02</internalNodes>
          <leafValues>
            -5.5223524570465088e-01 4.3268144130706787e-01</leafValues></_>
        <_>
          <internalNodes>
            0 -1 4 2.2143440321087837e-02</internalNodes>
          <leafValues>
            -6.4712882041931152e-01 3.2431155443191528e-01</leafValues></_>
        <_>
          <internalNodes>
            0 -1 66 9.4481445848941803e-03</internalNodes>
          <leafValues>
            2.1985490620136261e-01 -7.7193945646286011e-01</leafValues></_></weakClassifiers></_>
    <!-- stage 12 -->
    <_>
      <maxWeakCount>13</maxWeakCount>
      <stageThreshold>-1.7805502414703369e+00</stageThreshold>
      <weakClassifiers>
        <_>
          <internalNodes>
            0 -1 22 4.0294438600540161e-02</internalNodes>
          <leafValues>
            -7.5591987371444702e-01 5.3333334624767303e-02</leafValues></_>
        <_>
          <internalNodes>
            0 -1 28 2.6148132979869843e-02</internalNodes>
          <leafValues>
            -6.3129240274429321e-01 2.4139218032360077e-01</leafValues></_>
        <_>
          <internalNodes>
            0 -1 33 6.5056547522544861e-02</internalNodes>
          <leafValues>
            -5.8750921487808228e-01 2.6741397380828857e-01</leafValues></_>
        <_>
          <internalNodes>
            0 -1 0 4.6956516802310944e-02</internalNodes>
          <leafValues>
            -4.6533879637718201e-01 3.7736615538597107e-01</leafValues></_>
        <_>
          <internalNodes>
            0 -1 79 1.3143923133611679e-02</internalNodes>
          <leafValues>
            2.3381480574607849e-01 -6.2898766994476318e-01</leafValues></_>
        <_>
          <internalNodes>
            0 -1 76 3.0876806005835533e-02</internalNodes>
          <leafValues>
            -4.3227475881576538e-01 3.7755179405212402e-01</leafValues></_>
        <_>
          <internalNodes>
            0 -1 74 5.2492387592792511e-02</internalNodes>
          <leafValues>
            -5.8351176977157593e-01 2.2402176260948181e-01</leafValues></_>
        <_>
          <internalNodes>
            0 -1 78 1.0834988206624985e-02</internalNodes>
          <leafValues>
            -5.6487470865249634e-01 2.2713799774646759e-01</leafValues></_>
        <_>
          <internalNodes>
            0 -1 48 2.1874908357858658e-02</internalNodes>
          <leafValues>
            2.2566430270671844e-01 -6.2587070465087891e-01</leafValues></_>
        <_>
          <internalNodes>
            0 -1 16 1.3890076428651810e-02</internalNodes>
          <leafValues>
            -4.7310808300971985e-01 2.9058119654655457e-01</leafValues></_>
        <_>
          <internalNodes>
            0 -1 81 3.3425457775592804e-02</internalNodes>
          <leafValues>
            -8.1615960597991943e-01 1.5389673411846161e-01</leafValues></_>
        <_>
          <internalNodes>
            0 -1 19 3.0409781262278557e-02</internalNodes>
          <leafValues>
            2.0892435312271118e-01 -5.7243317365646362e-01</leafValues></_>
        <_>
          <internalNodes>
            0 -1 21 2.3729287087917328e-02</internalNodes>
          <leafValues>
            -5.4837590456008911e-01 2.3796477913856506e-01</leafValues></_></weakClassifiers></_>
    <!-- stage 13 -->
    <_>
      <maxWeakCount>10</maxWeakCount>
      <stageThreshold>-1.1496384143829346e+00</stageThreshold>
      <weakClassifiers>
        <_>
          <internalNodes>
            0 -1 20 2.9914762824773788e-02</internalNodes>
          <leafValues>
            -5.9354835748672485e-01 2.5736737251281738e-01</leafValues></_>
        <_>
          <internalNodes>
            0 -1 40 2.3441135883331299e-02</internalNodes>
          <leafValues>
            -5.2594667673110962e-01 2.7412664890289307e-01</leafValues></_>
        <_>
          <internalNodes>
            0 -1 22 3.1576603651046753e-02</internalNodes>
          <leafValues>
            -6.0836100578308105e-01 2.2751256823539734e-01</leafValues></_>
        <_>
          <internalNodes>
            0 -1 54 1.1912668123841286e-02</internalNodes>
          <leafValues>
            2.0429351925849915e-01 -8.0095267295837402e-01</leafValues></_>
        <_>
          <internalNodes>
            0 -1 9 7.6242722570896149e-03</internalNodes>
          <leafValues>
            -6.6552752256393433e-01 1.6489043831825256e-01</leafValues></_>
        <_>
          <internalNodes>
            0 -1 4 3.1565219163894653e-02</internalNodes>
          <leafValues>
            -4.3732383847236633e-01 3.0022847652435303e-01</leafValues></_>
        <_>
          <internalNodes>
            0 -1 38 5.6241340935230255e-02</internalNodes>
          <leafValues>
            -4.8161607980728149e-01 2.5965344905853271e-01</leafValues></_>
        <_>
          <internalNodes>
            0 -1 18 1.6533980146050453e-02</internalNodes>
          <leafValues>
            1.6549621522426605e-01 -6.7930269241333008e-01</leafValues></_>
        <_>
          <internalNodes>
            0 -1 30 4.9816463142633438e-02</internalNodes>
          <leafValues>
            1.4969776570796967e-01 -6.7803519964218140e-01</leafValues></_>
        <_>
          <internalNodes>
            0 -1 32 3.4878712147474289e-02</internalNodes>
          <leafValues>
            -7.9444581270217896e-01 1.5557396411895752e-01</leafValues></_></weakClassifiers></_>
    <!-- stage 14 -->
    <_>
      <maxWeakCount>12</maxWeakCount>
      <stageThreshold>-1.1038800477981567e+00</stageThreshold>
      <weakClassifiers>
        <_>
          <internalNodes>
            0 -1 14 2.3843413218855858e-02</internalNodes>
          <leafValues>
            -4.1040462255477905e-01 5.0566893815994263e-01</leafValues></_>
        <_>
          <internalNodes>
            0 -1 49 3.6441788077354431e-02</internalNodes>
          <leafValues>
            -3.5072159767150879e-01 4.4643962383270264e-01</leafValues></_>
        <_>
          <internalNodes>
            0 -1 46 5.4680984467267990e-03</internalNodes>
          <leafValues>
            -7.3912435770034790e-01 2.0470355451107025e-01</leafValues></_>
        <_>
          <internalNodes>
            0 -1 29 1.0078955441713333e-02</internalNodes>
          <leafValues>
            2.9605063796043396e-01 -5.6097352504730225e-01</leafValues></_>
        <_>
          <internalNodes>
            0 -1 7 9.5956444740295410e-02</internalNodes>
          <leafValues>
            -2.5854554772377014e-01 6.5072244405746460e-01</leafValues></_>
        <_>
          <internalNodes>
            0 -1 36 4.6190820634365082e-02</internalNodes>
          <leafValues>
            -6.9377237558364868e-01 2.7462255954742432e-01</leafValues></_>
        <_>
          <internalNodes>
            0 -1 59 2.0969834178686142e-02</internalNodes>
          <leafValues>
            8.5960179567337036e-02 -9.0200281143188477e-01</leafValues></_>
        <_>
          <internalNodes>
            0 -1 51 4.3020555749535561e-03</internalNodes>
          <leafValues>
            -8.1341737508773804e-01 1.2513598799705505e-01</leafValues></_>
        <_>
          <internalNodes>
            0 -1 41 4.4903591275215149e-02</internalNodes>
          <leafValues>
            -2.8015810251235962e-01 4.2192953824996948e-01</leafValues></_>
        <_>
          <internalNodes>
            0 -1 2 1.0324629954993725e-02</internalNodes>
          <leafValues>
            -6.0319459438323975e-01 2.1197645366191864e-01</leafValues></_>
        <_>
          <internalNodes>
            0 -1 34 8.7529875338077545e-02</internalNodes>
          <leafValues>
            -2.9293596744537354e-01 4.7048586606979370e-01</leafValues></_>
        <_>
          <internalNodes>
            0 -1 48 2.3656532168388367e-02</internalNodes>
          <leafValues>
            2.3662391304969788e-01 -6.5393322706222534e-01</leafValues></_></weakClassifiers></_>
    <!-- stage 15 -->
    <_>
      <maxWeakCount>12</maxWeakCount>
      <stageThreshold>-4.7335478663444519e-01</stageThreshold>
      <weakClassifiers>
        <_>
          <internalNodes>
            0 -1 24 1.6697566956281662e-02</internalNodes>
          <leafValues>
            5.8108109235763550e-01 -3.9047619700431824e-01</leafValues></_>
        <_>
          <internalNodes>
            0 -1 26 2.0417455583810806e-02</internalNodes>
          <leafValues>
            -3.7727734446525574e-01 4.6726438403129578e-01</leafValues></_>
        <_>
          <internalNodes>
            0 -1 68 5.9140920639038086e-02</internalNodes>
          <leafValues>
            -6.8266642093658447e-01 2.8856939077377319e-01</leafValues></_>
        <_>
          <internalNodes>
            0 -1 15 2.3272987455129623e-02</internalNodes>
          <leafValues>
            -4.6725165843963623e-01 3.5957762598991394e-01</leafValues></_>
        <_>
          <internalNodes>
            0 -1 62 7.0253112353384495e-03</internalNodes>
          <leafValues>
            2.5134536623954773e-01 -5.9664434194564819e-01</leafValues></_>
        <_>
          <internalNodes>
            0 -1 1 1.3472653925418854e-02</internalNodes>
          <leafValues>
            -7.1593946218490601e-01 1.9887711107730865e-01</leafValues></_>
        <_>
          <internalNodes>
            0 -1 6 3.2218039035797119e-02</internalNodes>
          <leafValues>
            1.8166016042232513e-01 -6.4106053113937378e-01</leafValues></_>
        <_>
          <internalNodes>
            0 -1 44 9.3563705682754517e-02</internalNodes>
          <leafValues>
            -3.3141359686851501e-01 4.2730847001075745e-01</leafValues></_>
        <_>
          <internalNodes>
            0 -1 3 8.6521850898861885e-03</internalNodes>
          <leafValues>
            -6.8926060199737549e-01 1.8248723447322845e-01</leafValues></_>
        <_>
          <internalNodes>
            0 -1 61 4.7909277491271496e-03</internalNodes>
          <leafValues>
            3.0128586292266846e-01 -4.7356685996055603e-01</leafValues></_>
        <_>
          <internalNodes>
            0 -1 5 1.5437675639986992e-02</internalNodes>
          <leafValues>
            3.5282230377197266e-01 -3.5609498620033264e-01</leafValues></_>
        <_>
          <internalNodes>
            0 -1 11 4.0835882537066936e-03</internalNodes>
          <leafValues>
            -5.9108781814575195e-01 2.5051167607307434e-01</leafValues></_></weakClassifiers></_>
    <!-- stage 16 -->
    <_>
      <maxWeakCount>8</maxWeakCount>
      <stageThreshold>-3.3411124348640442e-01</stageThreshold>
      <weakClassifiers>
        <_>
          <internalNodes>
            0 -1 0 9.9101457744836807e-03</internalNodes>
          <leafValues>
            -5.7894736528396606e-01 7.1624714136123657e-01</leafValues></_>
        <_>
          <internalNodes>
            0 -1 12 7.8085422515869141e-02</internalNodes>
          <leafValues>
            -1.1363034695386887e-01 9.2865186929702759e-01</leafValues></_>
        <_>
          <internalNodes>
            0 -1 13 3.9783086627721786e-02</internalNodes>
          <leafValues>
            -2.7085152268409729e-01 6.1157470941543579e-01</leafValues></_>
        <_>
          <internalNodes>
            0 -1 57 3.2814629375934601e-02</internalNodes>
          <leafValues>
            -3.5411724448204041e-01 4.9087193608283997e-01</leafValues></_>
        <_>
          <internalNodes>
            0 -1 80 2.1015658974647522e-02</internalNodes>
          <leafValues>
            3.3240696787834167e-01 -5.5466729402542114e-01</leafValues></_>
        <_>
          <internalNodes>
            0 -1 58 1.3394101522862911e-02</internalNodes>
          <leafValues>
            1.7465895414352417e-01 -8.4130090475082397e-01</leafValues></_>
        <_>
          <internalNodes>
            0 -1 75 3.6203294992446899e-02</internalNodes>
          <leafValues>
            1.6695970296859741e-01 -7.9954528808593750e-01</leafValues></_>
        <_>
          <internalNodes>
            0 -1 23 3.0791172757744789e-02</internalNodes>
          <leafValues>
            2.8773528337478638e-01 -5.9966593980789185e-01</leafValues></_></weakClassifiers></_></stages>
  <features>
    <_>
      <rect>
        0 0 8 8 11</rect></_>
    <_>
      <rect>
        0 4 8 8 10</rect></_>
    <_>
      <rect>
        0 8 8 8 9</rect></_>
    <_>
      <rect>
        0 8 8 8 32</rect></_>
    <_>
      <rect>
        0 28 8 8 11</rect></_>
    <_>
      <rect>
        0 28 8 8 22</rect></_>
    <_>
      <rect>
        0 32 8 8 27</rect></_>
    <_>
      <rect>
        4 0 8 8 11</rect></_>
    <_>
      <rect>
        4 0 8 8 12</rect></_>
    <_>
      <rect>
        4 8 8 8 24</rect></_>
    <_>
      <rect>
        4 8 8 8 33</rect></_>
    <_>
      <rect>
        4 20 8 8 3</rect></_>
    <_>
      <rect>
        4 24 8 8 0</rect></_>
    <_>
      <rect>
        4 24 8 8 8</rect></_>
    <_>
      <rect>
        4 28 8 8 1</rect></_>
    <_>
      <rect>
        4 28 8 8 2</rect></_>
    <_>
      <rect>
        4 32 8 8 3</rect></_>
    <_>
      <rect>
        8 0 8 8 17</rect></_>
    <_>
      <rect>
        8 16 8 8 11</rect></_>
    <_>
      <rect>
        8 20 8 8 35</rect></_>
    <_>
      <rect>
        8 32 8 8 20</rect></_>
    <_>
      <rect>
        12 0 8 8 3</rect></_>
    <_>
      <rect>
        12 0 8 8 14</rect></_>
    <_>
      <rect>
        12 0 8 8 16</rect></_>
    <_>
      <rect>
        12 0 8 8 17</rect></_>
    <_>
      <rect>
        12 4 8 8 15</rect></_>
    <_>
      <rect>
        12 4 8 8 23</rect></_>
    <_>
      <rect>
        12 16 8 8 5</rect></_>
    <_>
      <rect>
        12 16 8 8 6</rect></_>
    <_>
      <rect>
        12 20 8 8 34</rect></_>
    <_>
      <rect>
        12 20 8 8 35</rect></_>
    <_>
      <rect>
        12 24 8 8 9</rect></_>
    <_>
      <rect>
        12 28 8 8 9</rect></_>
    <_>
      <rect>
        12 32 8 8 10</rect></_>
    <_>
      <rect>
        12 32 8 8 20</rect></_>
    <_>
      <rect>
        16 0 8 8 4</rect></_>
    <_>
      <rect>
        16 0 8 8 34</rect></_>
    <_>
      <rect>
        16 4 8 8 15</rect></_>
    <_>
      <rect>
        16 4 8 8 35</rect></_>
    <_>
      <rect>
        16 8 8 8 16</rect></_>
    <_>
      <rect>
        16 16 8 8 6</rect></_>
    <_>
      <rect>
        16 16 8 8 7</rect></_>
    <_>
      <rect>
        16 28 8 8 2</rect></_>
    <_>
      <rect>
        16 28 8 8 19</rect></_>
    <_>
      <rect>
        16 32 8 8 19</rect></_>
    <_>
      <rect>
        0 0 8 16 22</rect></_>
    <_>
      <rect>
        0 0 8 16 30</rect></_>
    <_>
      <rect>
        0 4 8 16 30</rect></_>
    <_>
      <rect>
        0 8 8 16 22</rect></_>
    <_>
      <rect>
        0 12 8 16 15</rect></_>
    <_>
      <rect>
        0 16 8 16 29</rect></_>
    <_>
      <rect>
        4 16 8 16 23</rect></_>
    <_>
      <rect>
        12 0 8 16 9</rect></_>
    <_>
      <rect>
        12 4 8 16 31</rect></_>
    <_>
      <rect>
        12 8 8 16 31</rect></_>
    <_>
      <rect>
        12 8 8 16 33</rect></_>
    <_>
      <rect>
        12 16 8 16 5</rect></_>
    <_>
      <rect>
        12 16 8 16 6</rect></_>
    <_>
      <rect>
        16 0 8 16 11</rect></_>
    <_>
      <rect>
        16 0 8 16 29</rect></_>
    <_>
      <rect>
        16 0 8 16 31</rect></_>
    <_>
      <rect>
        16 0 8 16 32</rect></_>
    <_>
      <rect>
        16 4 8 16 11</rect></_>
    <_>
      <rect>
        16 4 8 16 27</rect></_>
    <_>
      <rect>
        16 4 8 16 29</rect></_>
    <_>
      <rect>
        16 8 8 16 11</rect></_>
    <_>
      <rect>
        16 12 8 16 12</rect></_>
    <_>
      <rect>
        16 12 8 16 17</rect></_>
    <_>
      <rect>
        16 12 8 16 19</rect></_>
    <_>
      <rect>
        16 16 8 16 9</rect></_>
    <_>
      <rect>
        16 16 8 16 19</rect></_>
    <_>
      <rect>
        0 0 16 8 14</rect></_>
    <_>
      <rect>
        0 0 16 8 34</rect></_>
    <_>
      <rect>
        0 4 16 8 1</rect></_>
    <_>
      <rect>
        0 24 16 8 9</rect></_>
    <_>
      <rect>
        0 24 16 8 22</rect></_>
    <_>
      <rect>
        0 28 16 8 0</rect></_>
    <_>
      <rect>
        0 28 16 8 1</rect></_>
    <_>
      <rect>
        0 32 16 8 23</rect></_>
    <_>
      <rect>
        0 32 16 8 31</rect></_>
    <_>
      <rect>
        0 0 16 16 5</rect></_>
    <_>
      <rect>
        0 8 16 16 16</rect></_>
    <_>
      <rect>
        0 8 16 16 25</rect></_>
    <_>
      <rect>
        0 12 16 16 17</rect></_></features></cascade>
</opencv_storage>
