<?xml version="1.0"?>
<opencv_storage>
<!-- Created using Computer Vision System Toolbox(tm) for MATLAB(R) -->
<!-- Version 9.5.0.944444 (R2018b) -->
<!-- Compatible with OpenCV 3.4 -->
<cascade>
  <stageType>BOOST</stageType>
  <featureType>HOG</featureType>
  <height>50</height>
  <width>32</width>
  <stageParams>
    <boostType>GAB</boostType>
    <minHitRate>9.9500000476837158e-01</minHitRate>
    <maxFalseAlarm>8.0000001192092896e-01</maxFalseAlarm>
    <weightTrimRate>9.4999999999999996e-01</weightTrimRate>
    <maxDepth>1</maxDepth>
    <maxWeakCount>100</maxWeakCount></stageParams>
  <featureParams>
    <maxCatCount>0</maxCatCount>
    <featSize>36</featSize></featureParams>
  <stageNum>33</stageNum>
  <stages>
    <!-- stage 0 -->
    <_>
      <maxWeakCount>3</maxWeakCount>
      <stageThreshold>-1.1200184822082520e+00</stageThreshold>
      <weakClassifiers>
        <_>
          <internalNodes>
            0 -1 87 5.1100194454193115e-02</internalNodes>
          <leafValues>
            -9.0501320362091064e-01 7.7493607997894287e-01</leafValues></_>
        <_>
          <internalNodes>
            0 -1 44 4.6980079263448715e-02</internalNodes>
          <leafValues>
            -8.5732793807983398e-01 7.4384921789169312e-01</leafValues></_>
        <_>
          <internalNodes>
            0 -1 69 8.4697622805833817e-03</internalNodes>
          <leafValues>
            6.4232259988784790e-01 -8.4921038150787354e-01</leafValues></_></weakClassifiers></_>
    <!-- stage 1 -->
    <_>
      <maxWeakCount>3</maxWeakCount>
      <stageThreshold>-1.0428180694580078e+00</stageThreshold>
      <weakClassifiers>
        <_>
          <internalNodes>
            0 -1 82 5.5673632770776749e-02</internalNodes>
          <leafValues>
            -8.7362635135650635e-01 6.0095012187957764e-01</leafValues></_>
        <_>
          <internalNodes>
            0 -1 81 5.3230334073305130e-02</internalNodes>
          <leafValues>
            -7.8472828865051270e-01 5.7975924015045166e-01</leafValues></_>
        <_>
          <internalNodes>
            0 -1 0 3.8164619356393814e-02</internalNodes>
          <leafValues>
            -7.4895089864730835e-01 6.3876873254776001e-01</leafValues></_></weakClassifiers></_>
    <!-- stage 2 -->
    <_>
      <maxWeakCount>2</maxWeakCount>
      <stageThreshold>-3.4847402572631836e-01</stageThreshold>
      <weakClassifiers>
        <_>
          <internalNodes>
            0 -1 83 2.6285491883754730e-02</internalNodes>
          <leafValues>
            -9.0270268917083740e-01 6.9682151079177856e-01</leafValues></_>
        <_>
          <internalNodes>
            0 -1 74 9.9691860377788544e-03</internalNodes>
          <leafValues>
            5.5422866344451904e-01 -9.1558802127838135e-01</leafValues></_></weakClassifiers></_>
    <!-- stage 3 -->
    <_>
      <maxWeakCount>3</maxWeakCount>
      <stageThreshold>-1.0374997854232788e+00</stageThreshold>
      <weakClassifiers>
        <_>
          <internalNodes>
            0 -1 37 9.1292068362236023e-02</internalNodes>
          <leafValues>
            -7.8007763624191284e-01 5.8510637283325195e-01</leafValues></_>
        <_>
          <internalNodes>
            0 -1 31 5.0692051649093628e-02</internalNodes>
          <leafValues>
            -7.3528176546096802e-01 5.8770859241485596e-01</leafValues></_>
        <_>
          <internalNodes>
            0 -1 63 9.2362742871046066e-03</internalNodes>
          <leafValues>
            4.9362888932228088e-01 -8.4513080120086670e-01</leafValues></_></weakClassifiers></_>
    <!-- stage 4 -->
    <_>
      <maxWeakCount>4</maxWeakCount>
      <stageThreshold>-1.5264568328857422e+00</stageThreshold>
      <weakClassifiers>
        <_>
          <internalNodes>
            0 -1 13 3.3943731337785721e-02</internalNodes>
          <leafValues>
            -8.1842815876007080e-01 5.3771287202835083e-01</leafValues></_>
        <_>
          <internalNodes>
            0 -1 49 1.0736580193042755e-01</internalNodes>
          <leafValues>
            -6.3351565599441528e-01 7.6505923271179199e-01</leafValues></_>
        <_>
          <internalNodes>
            0 -1 58 2.4010129272937775e-02</internalNodes>
          <leafValues>
            -7.3663109540939331e-01 4.2943772673606873e-01</leafValues></_>
        <_>
          <internalNodes>
            0 -1 33 3.7772051990032196e-02</internalNodes>
          <leafValues>
            -5.0395071506500244e-01 7.3926949501037598e-01</leafValues></_></weakClassifiers></_>
    <!-- stage 5 -->
    <_>
      <maxWeakCount>4</maxWeakCount>
      <stageThreshold>-1.5119946002960205e+00</stageThreshold>
      <weakClassifiers>
        <_>
          <internalNodes>
            0 -1 42 6.0975551605224609e-02</internalNodes>
          <leafValues>
            -8.1388890743255615e-01 4.7319346666336060e-01</leafValues></_>
        <_>
          <internalNodes>
            0 -1 38 7.5565941631793976e-02</internalNodes>
          <leafValues>
            -5.4362452030181885e-01 7.4394106864929199e-01</leafValues></_>
        <_>
          <internalNodes>
            0 -1 46 2.4575995281338692e-02</internalNodes>
          <leafValues>
            -6.2751144170761108e-01 5.2428978681564331e-01</leafValues></_>
        <_>
          <internalNodes>
            0 -1 30 1.5243260189890862e-02</internalNodes>
          <leafValues>
            4.7303026914596558e-01 -6.5862613916397095e-01</leafValues></_></weakClassifiers></_>
    <!-- stage 6 -->
    <_>
      <maxWeakCount>4</maxWeakCount>
      <stageThreshold>-1.6807814836502075e+00</stageThreshold>
      <weakClassifiers>
        <_>
          <internalNodes>
            0 -1 42 5.4805222898721695e-02</internalNodes>
          <leafValues>
            -8.4545457363128662e-01 3.5787320137023926e-01</leafValues></_>
        <_>
          <internalNodes>
            0 -1 37 5.9067726135253906e-02</internalNodes>
          <leafValues>
            -7.7688395977020264e-01 3.9899122714996338e-01</leafValues></_>
        <_>
          <internalNodes>
            0 -1 0 6.1464644968509674e-02</internalNodes>
          <leafValues>
            -5.4393273591995239e-01 6.0304003953933716e-01</leafValues></_>
        <_>
          <internalNodes>
            0 -1 15 2.2944282740354538e-02</internalNodes>
          <leafValues>
            -7.1783792972564697e-01 4.9250182509422302e-01</leafValues></_></weakClassifiers></_>
    <!-- stage 7 -->
    <_>
      <maxWeakCount>4</maxWeakCount>
      <stageThreshold>-1.4816682338714600e+00</stageThreshold>
      <weakClassifiers>
        <_>
          <internalNodes>
            0 -1 81 7.3293469846248627e-02</internalNodes>
          <leafValues>
            -7.4930363893508911e-01 3.5962876677513123e-01</leafValues></_>
        <_>
          <internalNodes>
            0 -1 14 3.0461490154266357e-02</internalNodes>
          <leafValues>
            -6.7495888471603394e-01 4.7332629561424255e-01</leafValues></_>
        <_>
          <internalNodes>
            0 -1 0 6.1349868774414063e-02</internalNodes>
          <leafValues>
            -4.9514928460121155e-01 5.3684234619140625e-01</leafValues></_>
        <_>
          <internalNodes>
            0 -1 38 3.9083234965801239e-02</internalNodes>
          <leafValues>
            -5.9424799680709839e-01 4.4865918159484863e-01</leafValues></_></weakClassifiers></_>
    <!-- stage 8 -->
    <_>
      <maxWeakCount>3</maxWeakCount>
      <stageThreshold>-1.1422562599182129e+00</stageThreshold>
      <weakClassifiers>
        <_>
          <internalNodes>
            0 -1 37 1.1130894720554352e-01</internalNodes>
          <leafValues>
            -7.2359842061996460e-01 4.5026177167892456e-01</leafValues></_>
        <_>
          <internalNodes>
            0 -1 22 1.4368136413395405e-02</internalNodes>
          <leafValues>
            4.0060636401176453e-01 -7.5664812326431274e-01</leafValues></_>
        <_>
          <internalNodes>
            0 -1 87 5.3703866899013519e-02</internalNodes>
          <leafValues>
            -7.1217888593673706e-01 3.3799028396606445e-01</leafValues></_></weakClassifiers></_>
    <!-- stage 9 -->
    <_>
      <maxWeakCount>3</maxWeakCount>
      <stageThreshold>-9.1303342580795288e-01</stageThreshold>
      <weakClassifiers>
        <_>
          <internalNodes>
            0 -1 37 1.3355623185634613e-01</internalNodes>
          <leafValues>
            -6.5728902816772461e-01 3.5694822669029236e-01</leafValues></_>
        <_>
          <internalNodes>
            0 -1 8 2.8592973947525024e-02</internalNodes>
          <leafValues>
            -5.8784294128417969e-01 4.4397225975990295e-01</leafValues></_>
        <_>
          <internalNodes>
            0 -1 33 1.7982697114348412e-02</internalNodes>
          <leafValues>
            -6.8213874101638794e-01 4.1734308004379272e-01</leafValues></_></weakClassifiers></_>
    <!-- stage 10 -->
    <_>
      <maxWeakCount>5</maxWeakCount>
      <stageThreshold>-1.4458466768264771e+00</stageThreshold>
      <weakClassifiers>
        <_>
          <internalNodes>
            0 -1 12 3.8524713367223740e-02</internalNodes>
          <leafValues>
            -7.4846625328063965e-01 2.1126760542392731e-01</leafValues></_>
        <_>
          <internalNodes>
            0 -1 92 4.2169872671365738e-02</internalNodes>
          <leafValues>
            -7.7440482378005981e-01 2.5776964426040649e-01</leafValues></_>
        <_>
          <internalNodes>
            0 -1 49 9.6736684441566467e-02</internalNodes>
          <leafValues>
            -5.1665341854095459e-01 4.8068287968635559e-01</leafValues></_>
        <_>
          <internalNodes>
            0 -1 83 3.6902651190757751e-02</internalNodes>
          <leafValues>
            -5.5394452810287476e-01 4.3463596701622009e-01</leafValues></_>
        <_>
          <internalNodes>
            0 -1 6 2.6521991938352585e-02</internalNodes>
          <leafValues>
            2.8491944074630737e-01 -8.0069202184677124e-01</leafValues></_></weakClassifiers></_>
    <!-- stage 11 -->
    <_>
      <maxWeakCount>3</maxWeakCount>
      <stageThreshold>-1.3014433383941650e+00</stageThreshold>
      <weakClassifiers>
        <_>
          <internalNodes>
            0 -1 65 3.8623444736003876e-02</internalNodes>
          <leafValues>
            -6.7479676008224487e-01 2.7980536222457886e-01</leafValues></_>
        <_>
          <internalNodes>
            0 -1 59 1.2696512043476105e-02</internalNodes>
          <leafValues>
            2.7016964554786682e-01 -7.4605524539947510e-01</leafValues></_>
        <_>
          <internalNodes>
            0 -1 78 3.5855043679475784e-02</internalNodes>
          <leafValues>
            -8.9681625366210938e-01 2.2508582472801208e-01</leafValues></_></weakClassifiers></_>
    <!-- stage 12 -->
    <_>
      <maxWeakCount>4</maxWeakCount>
      <stageThreshold>-1.5924797058105469e+00</stageThreshold>
      <weakClassifiers>
        <_>
          <internalNodes>
            0 -1 65 3.9118446409702301e-02</internalNodes>
          <leafValues>
            -6.6756033897399902e-01 2.8535979986190796e-01</leafValues></_>
        <_>
          <internalNodes>
            0 -1 1 3.3772788941860199e-02</internalNodes>
          <leafValues>
            -6.3444495201110840e-01 3.4452289342880249e-01</leafValues></_>
        <_>
          <internalNodes>
            0 -1 37 1.1146911978721619e-01</internalNodes>
          <leafValues>
            -5.1296949386596680e-01 4.9888065457344055e-01</leafValues></_>
        <_>
          <internalNodes>
            0 -1 73 1.8447572365403175e-02</internalNodes>
          <leafValues>
            2.7258968353271484e-01 -7.8935509920120239e-01</leafValues></_></weakClassifiers></_>
    <!-- stage 13 -->
    <_>
      <maxWeakCount>4</maxWeakCount>
      <stageThreshold>-1.0840024948120117e+00</stageThreshold>
      <weakClassifiers>
        <_>
          <internalNodes>
            0 -1 43 7.5575873255729675e-02</internalNodes>
          <leafValues>
            -6.8523675203323364e-01 2.5290024280548096e-01</leafValues></_>
        <_>
          <internalNodes>
            0 -1 45 2.1780684590339661e-02</internalNodes>
          <leafValues>
            -6.2117207050323486e-01 3.1216126680374146e-01</leafValues></_>
        <_>
          <internalNodes>
            0 -1 50 4.3537214398384094e-02</internalNodes>
          <leafValues>
            -8.1121551990509033e-01 2.5492498278617859e-01</leafValues></_>
        <_>
          <internalNodes>
            0 -1 39 6.6629089415073395e-03</internalNodes>
          <leafValues>
            -8.3784848451614380e-01 2.8874525427818298e-01</leafValues></_></weakClassifiers></_>
    <!-- stage 14 -->
    <_>
      <maxWeakCount>3</maxWeakCount>
      <stageThreshold>-1.1676101684570313e+00</stageThreshold>
      <weakClassifiers>
        <_>
          <internalNodes>
            0 -1 62 4.2052464559674263e-03</internalNodes>
          <leafValues>
            3.1455397605895996e-01 -7.1507608890533447e-01</leafValues></_>
        <_>
          <internalNodes>
            0 -1 68 3.1539138406515121e-02</internalNodes>
          <leafValues>
            -7.7372843027114868e-01 2.4240027368068695e-01</leafValues></_>
        <_>
          <internalNodes>
            0 -1 79 7.7098179608583450e-03</internalNodes>
          <leafValues>
            3.2119429111480713e-01 -6.1532133817672729e-01</leafValues></_></weakClassifiers></_>
    <!-- stage 15 -->
    <_>
      <maxWeakCount>4</maxWeakCount>
      <stageThreshold>-1.6681152582168579e+00</stageThreshold>
      <weakClassifiers>
        <_>
          <internalNodes>
            0 -1 81 8.9005738496780396e-02</internalNodes>
          <leafValues>
            -6.5946632623672485e-01 3.7569060921669006e-01</leafValues></_>
        <_>
          <internalNodes>
            0 -1 71 6.6324500367045403e-03</internalNodes>
          <leafValues>
            3.8904672861099243e-01 -6.7738372087478638e-01</leafValues></_>
        <_>
          <internalNodes>
            0 -1 40 3.8731150329113007e-02</internalNodes>
          <leafValues>
            -5.7640576362609863e-01 4.0629875659942627e-01</leafValues></_>
        <_>
          <internalNodes>
            0 -1 48 2.7015581727027893e-02</internalNodes>
          <leafValues>
            -7.9001641273498535e-01 2.8270232677459717e-01</leafValues></_></weakClassifiers></_>
    <!-- stage 16 -->
    <_>
      <maxWeakCount>6</maxWeakCount>
      <stageThreshold>-1.8517262935638428e+00</stageThreshold>
      <weakClassifiers>
        <_>
          <internalNodes>
            0 -1 38 8.9192569255828857e-02</internalNodes>
          <leafValues>
            -6.0273975133895874e-01 5.3113555908203125e-01</leafValues></_>
        <_>
          <internalNodes>
            0 -1 40 3.7739794701337814e-02</internalNodes>
          <leafValues>
            -5.9063601493835449e-01 4.6548229455947876e-01</leafValues></_>
        <_>
          <internalNodes>
            0 -1 77 5.5734403431415558e-03</internalNodes>
          <leafValues>
            4.2674231529235840e-01 -6.4357614517211914e-01</leafValues></_>
        <_>
          <internalNodes>
            0 -1 64 8.1632006913423538e-03</internalNodes>
          <leafValues>
            3.6642688512802124e-01 -6.4068579673767090e-01</leafValues></_>
        <_>
          <internalNodes>
            0 -1 8 2.2132404148578644e-02</internalNodes>
          <leafValues>
            -6.6251420974731445e-01 3.3961582183837891e-01</leafValues></_>
        <_>
          <internalNodes>
            0 -1 42 4.4664107263088226e-02</internalNodes>
          <leafValues>
            -6.9618070125579834e-01 2.8629559278488159e-01</leafValues></_></weakClassifiers></_>
    <!-- stage 17 -->
    <_>
      <maxWeakCount>7</maxWeakCount>
      <stageThreshold>-1.6905341148376465e+00</stageThreshold>
      <weakClassifiers>
        <_>
          <internalNodes>
            0 -1 13 4.6603716909885406e-02</internalNodes>
          <leafValues>
            -6.8103450536727905e-01 2.0088300108909607e-01</leafValues></_>
        <_>
          <internalNodes>
            0 -1 88 2.8345296159386635e-02</internalNodes>
          <leafValues>
            -5.6477618217468262e-01 3.2892459630966187e-01</leafValues></_>
        <_>
          <internalNodes>
            0 -1 87 5.5924713611602783e-02</internalNodes>
          <leafValues>
            -6.7035883665084839e-01 2.8129309415817261e-01</leafValues></_>
        <_>
          <internalNodes>
            0 -1 32 3.7114251405000687e-02</internalNodes>
          <leafValues>
            -4.6449589729309082e-01 4.3628805875778198e-01</leafValues></_>
        <_>
          <internalNodes>
            0 -1 67 2.6837177574634552e-02</internalNodes>
          <leafValues>
            -7.2022098302841187e-01 2.9660111665725708e-01</leafValues></_>
        <_>
          <internalNodes>
            0 -1 52 3.4729517996311188e-02</internalNodes>
          <leafValues>
            -5.7319873571395874e-01 3.1471869349479675e-01</leafValues></_>
        <_>
          <internalNodes>
            0 -1 84 3.2217554748058319e-02</internalNodes>
          <leafValues>
            -8.3588206768035889e-01 2.1371613442897797e-01</leafValues></_></weakClassifiers></_>
    <!-- stage 18 -->
    <_>
      <maxWeakCount>5</maxWeakCount>
      <stageThreshold>-1.0884832143783569e+00</stageThreshold>
      <weakClassifiers>
        <_>
          <internalNodes>
            0 -1 85 3.0779223889112473e-02</internalNodes>
          <leafValues>
            -7.4017095565795898e-01 8.8652484118938446e-02</leafValues></_>
        <_>
          <internalNodes>
            0 -1 17 3.7864353507757187e-02</internalNodes>
          <leafValues>
            -5.1988852024078369e-01 3.5162901878356934e-01</leafValues></_>
        <_>
          <internalNodes>
            0 -1 54 2.4355771020054817e-02</internalNodes>
          <leafValues>
            -4.2531627416610718e-01 4.5806092023849487e-01</leafValues></_>
        <_>
          <internalNodes>
            0 -1 47 7.3541238903999329e-02</internalNodes>
          <leafValues>
            -4.7868105769157410e-01 3.9529347419738770e-01</leafValues></_>
        <_>
          <internalNodes>
            0 -1 55 1.0625062510371208e-02</internalNodes>
          <leafValues>
            -6.2476736307144165e-01 2.7240088582038879e-01</leafValues></_></weakClassifiers></_>
    <!-- stage 19 -->
    <_>
      <maxWeakCount>4</maxWeakCount>
      <stageThreshold>-1.4346421957015991e+00</stageThreshold>
      <weakClassifiers>
        <_>
          <internalNodes>
            0 -1 0 8.7153509259223938e-02</internalNodes>
          <leafValues>
            -6.0476189851760864e-01 4.0453073382377625e-01</leafValues></_>
        <_>
          <internalNodes>
            0 -1 61 5.0658085383474827e-03</internalNodes>
          <leafValues>
            3.7543171644210815e-01 -6.2313181161880493e-01</leafValues></_>
        <_>
          <internalNodes>
            0 -1 30 1.3165075331926346e-02</internalNodes>
          <leafValues>
            3.5387098789215088e-01 -6.1457020044326782e-01</leafValues></_>
        <_>
          <internalNodes>
            0 -1 51 6.9685161113739014e-02</internalNodes>
          <leafValues>
            -4.7902819514274597e-01 4.0782177448272705e-01</leafValues></_></weakClassifiers></_>
    <!-- stage 20 -->
    <_>
      <maxWeakCount>5</maxWeakCount>
      <stageThreshold>-1.5008286237716675e+00</stageThreshold>
      <weakClassifiers>
        <_>
          <internalNodes>
            0 -1 34 4.0172688663005829e-02</internalNodes>
          <leafValues>
            -6.7238688468933105e-01 9.4488188624382019e-02</leafValues></_>
        <_>
          <internalNodes>
            0 -1 1 2.8535388410091400e-02</internalNodes>
          <leafValues>
            -6.3259208202362061e-01 2.4248898029327393e-01</leafValues></_>
        <_>
          <internalNodes>
            0 -1 38 3.6366350948810577e-02</internalNodes>
          <leafValues>
            -5.8696985244750977e-01 2.6948562264442444e-01</leafValues></_>
        <_>
          <internalNodes>
            0 -1 91 1.4632686972618103e-02</internalNodes>
          <leafValues>
            -7.4315714836120605e-01 2.4818699061870575e-01</leafValues></_>
        <_>
          <internalNodes>
            0 -1 13 3.4635681658983231e-02</internalNodes>
          <leafValues>
            -5.0767874717712402e-01 2.8290879726409912e-01</leafValues></_></weakClassifiers></_>
    <!-- stage 21 -->
    <_>
      <maxWeakCount>5</maxWeakCount>
      <stageThreshold>-1.4485337734222412e+00</stageThreshold>
      <weakClassifiers>
        <_>
          <internalNodes>
            0 -1 63 5.2347192540764809e-03</internalNodes>
          <leafValues>
            1.4128728769719601e-02 -7.6562500000000000e-01</leafValues></_>
        <_>
          <internalNodes>
            0 -1 0 7.2001293301582336e-02</internalNodes>
          <leafValues>
            -4.6133777499198914e-01 3.9170935750007629e-01</leafValues></_>
        <_>
          <internalNodes>
            0 -1 23 2.0591642707586288e-02</internalNodes>
          <leafValues>
            2.5600147247314453e-01 -6.3689434528350830e-01</leafValues></_>
        <_>
          <internalNodes>
            0 -1 36 2.0904606208205223e-02</internalNodes>
          <leafValues>
            -9.4114375114440918e-01 1.6892017424106598e-01</leafValues></_>
        <_>
          <internalNodes>
            0 -1 17 2.3425530642271042e-02</internalNodes>
          <leafValues>
            -6.0679900646209717e-01 2.4640320241451263e-01</leafValues></_></weakClassifiers></_>
    <!-- stage 22 -->
    <_>
      <maxWeakCount>7</maxWeakCount>
      <stageThreshold>-1.4992470741271973e+00</stageThreshold>
      <weakClassifiers>
        <_>
          <internalNodes>
            0 -1 5 3.7337213754653931e-02</internalNodes>
          <leafValues>
            -6.6823160648345947e-01 2.0434781908988953e-01</leafValues></_>
        <_>
          <internalNodes>
            0 -1 70 8.5489843040704727e-03</internalNodes>
          <leafValues>
            1.6474570333957672e-01 -7.3660069704055786e-01</leafValues></_>
        <_>
          <internalNodes>
            0 -1 60 3.3471193164587021e-02</internalNodes>
          <leafValues>
            -5.2974909543991089e-01 2.8048866987228394e-01</leafValues></_>
        <_>
          <internalNodes>
            0 -1 1 2.3428844287991524e-02</internalNodes>
          <leafValues>
            -6.1465311050415039e-01 2.3443986475467682e-01</leafValues></_>
        <_>
          <internalNodes>
            0 -1 46 3.9089478552341461e-02</internalNodes>
          <leafValues>
            -3.7921926379203796e-01 4.4777235388755798e-01</leafValues></_>
        <_>
          <internalNodes>
            0 -1 57 2.5703165680170059e-02</internalNodes>
          <leafValues>
            2.1546036005020142e-01 -6.6486495733261108e-01</leafValues></_>
        <_>
          <internalNodes>
            0 -1 49 1.0813730210065842e-01</internalNodes>
          <leafValues>
            -3.8609632849693298e-01 3.6465340852737427e-01</leafValues></_></weakClassifiers></_>
    <!-- stage 23 -->
    <_>
      <maxWeakCount>5</maxWeakCount>
      <stageThreshold>-1.1575934886932373e+00</stageThreshold>
      <weakClassifiers>
        <_>
          <internalNodes>
            0 -1 38 7.5358673930168152e-02</internalNodes>
          <leafValues>
            -4.9357798695564270e-01 3.3514985442161560e-01</leafValues></_>
        <_>
          <internalNodes>
            0 -1 28 8.9225228875875473e-03</internalNodes>
          <leafValues>
            2.8632166981697083e-01 -6.0005080699920654e-01</leafValues></_>
        <_>
          <internalNodes>
            0 -1 76 2.3918060585856438e-02</internalNodes>
          <leafValues>
            -5.7076025009155273e-01 2.5666648149490356e-01</leafValues></_>
        <_>
          <internalNodes>
            0 -1 12 3.8630105555057526e-02</internalNodes>
          <leafValues>
            -5.2701395750045776e-01 3.3044975996017456e-01</leafValues></_>
        <_>
          <internalNodes>
            0 -1 72 4.3878212571144104e-02</internalNodes>
          <leafValues>
            -6.5108090639114380e-01 2.5253862142562866e-01</leafValues></_></weakClassifiers></_>
    <!-- stage 24 -->
    <_>
      <maxWeakCount>5</maxWeakCount>
      <stageThreshold>-1.0620934963226318e+00</stageThreshold>
      <weakClassifiers>
        <_>
          <internalNodes>
            0 -1 86 5.1031962037086487e-02</internalNodes>
          <leafValues>
            -4.5882353186607361e-01 4.3707093596458435e-01</leafValues></_>
        <_>
          <internalNodes>
            0 -1 49 1.4516511559486389e-01</internalNodes>
          <leafValues>
            -3.2598599791526794e-01 5.5561465024948120e-01</leafValues></_>
        <_>
          <internalNodes>
            0 -1 10 8.3703994750976563e-03</internalNodes>
          <leafValues>
            -5.6972163915634155e-01 3.2260379195213318e-01</leafValues></_>
        <_>
          <internalNodes>
            0 -1 21 3.4268438816070557e-02</internalNodes>
          <leafValues>
            2.0032779872417450e-01 -8.4394001960754395e-01</leafValues></_>
        <_>
          <internalNodes>
            0 -1 19 1.3464504852890968e-02</internalNodes>
          <leafValues>
            -5.2483940124511719e-01 2.4048325419425964e-01</leafValues></_></weakClassifiers></_>
    <!-- stage 25 -->
    <_>
      <maxWeakCount>5</maxWeakCount>
      <stageThreshold>-1.0009492635726929e+00</stageThreshold>
      <weakClassifiers>
        <_>
          <internalNodes>
            0 -1 7 1.2882725335657597e-02</internalNodes>
          <leafValues>
            -5.2317881584167480e-01 4.4583332538604736e-01</leafValues></_>
        <_>
          <internalNodes>
            0 -1 15 5.8844909071922302e-02</internalNodes>
          <leafValues>
            -3.2459115982055664e-01 6.4883333444595337e-01</leafValues></_>
        <_>
          <internalNodes>
            0 -1 12 3.8257114589214325e-02</internalNodes>
          <leafValues>
            -4.9300494790077209e-01 3.3340057730674744e-01</leafValues></_>
        <_>
          <internalNodes>
            0 -1 35 1.9112456589937210e-02</internalNodes>
          <leafValues>
            1.8979227542877197e-01 -8.9984649419784546e-01</leafValues></_>
        <_>
          <internalNodes>
            0 -1 26 1.6296215355396271e-02</internalNodes>
          <leafValues>
            2.7286487817764282e-01 -5.6015789508819580e-01</leafValues></_></weakClassifiers></_>
    <!-- stage 26 -->
    <_>
      <maxWeakCount>5</maxWeakCount>
      <stageThreshold>-8.0157041549682617e-01</stageThreshold>
      <weakClassifiers>
        <_>
          <internalNodes>
            0 -1 40 4.1502699255943298e-02</internalNodes>
          <leafValues>
            -3.5772356390953064e-01 5.5102038383483887e-01</leafValues></_>
        <_>
          <internalNodes>
            0 -1 49 4.9626573920249939e-02</internalNodes>
          <leafValues>
            -6.8705832958221436e-01 3.0488929152488708e-01</leafValues></_>
        <_>
          <internalNodes>
            0 -1 16 4.1488204151391983e-02</internalNodes>
          <leafValues>
            -3.4630349278450012e-01 4.8321717977523804e-01</leafValues></_>
        <_>
          <internalNodes>
            0 -1 9 2.1808221936225891e-02</internalNodes>
          <leafValues>
            -3.9860796928405762e-01 4.0289768576622009e-01</leafValues></_>
        <_>
          <internalNodes>
            0 -1 53 2.6939935982227325e-02</internalNodes>
          <leafValues>
            1.8661731481552124e-01 -8.3268529176712036e-01</leafValues></_></weakClassifiers></_>
    <!-- stage 27 -->
    <_>
      <maxWeakCount>3</maxWeakCount>
      <stageThreshold>-7.5571238994598389e-01</stageThreshold>
      <weakClassifiers>
        <_>
          <internalNodes>
            0 -1 25 3.1620278954505920e-02</internalNodes>
          <leafValues>
            5.5172413587570190e-01 -5.3535354137420654e-01</leafValues></_>
        <_>
          <internalNodes>
            0 -1 29 5.3330063819885254e-02</internalNodes>
          <leafValues>
            -4.2703840136528015e-01 4.9888062477111816e-01</leafValues></_>
        <_>
          <internalNodes>
            0 -1 63 1.1309514753520489e-02</internalNodes>
          <leafValues>
            2.0667956769466400e-01 -9.0086364746093750e-01</leafValues></_></weakClassifiers></_>
    <!-- stage 28 -->
    <_>
      <maxWeakCount>4</maxWeakCount>
      <stageThreshold>-9.2638254165649414e-02</stageThreshold>
      <weakClassifiers>
        <_>
          <internalNodes>
            0 -1 32 2.3271277546882629e-02</internalNodes>
          <leafValues>
            -2.7819550037384033e-01 6.6253101825714111e-01</leafValues></_>
        <_>
          <internalNodes>
            0 -1 17 6.7339815199375153e-02</internalNodes>
          <leafValues>
            -1.8916903436183929e-01 7.9103851318359375e-01</leafValues></_>
        <_>
          <internalNodes>
            0 -1 25 3.3162809908390045e-02</internalNodes>
          <leafValues>
            2.7932840585708618e-01 -7.2960132360458374e-01</leafValues></_>
        <_>
          <internalNodes>
            0 -1 42 3.5707600414752960e-02</internalNodes>
          <leafValues>
            -8.4532862901687622e-01 1.7433737218379974e-01</leafValues></_></weakClassifiers></_>
    <!-- stage 29 -->
    <_>
      <maxWeakCount>6</maxWeakCount>
      <stageThreshold>-6.7066758871078491e-01</stageThreshold>
      <weakClassifiers>
        <_>
          <internalNodes>
            0 -1 20 1.9152803346514702e-02</internalNodes>
          <leafValues>
            -3.6363637447357178e-01 6.5296804904937744e-01</leafValues></_>
        <_>
          <internalNodes>
            0 -1 2 2.5329198688268661e-02</internalNodes>
          <leafValues>
            -3.2515868544578552e-01 5.6170177459716797e-01</leafValues></_>
        <_>
          <internalNodes>
            0 -1 51 9.3107998371124268e-02</internalNodes>
          <leafValues>
            -3.4183782339096069e-01 5.6083935499191284e-01</leafValues></_>
        <_>
          <internalNodes>
            0 -1 12 6.9673880934715271e-02</internalNodes>
          <leafValues>
            -3.5676720738410950e-01 6.2164545059204102e-01</leafValues></_>
        <_>
          <internalNodes>
            0 -1 89 1.2297770008444786e-02</internalNodes>
          <leafValues>
            -5.2145892381668091e-01 3.8595163822174072e-01</leafValues></_>
        <_>
          <internalNodes>
            0 -1 75 6.0498919337987900e-03</internalNodes>
          <leafValues>
            3.1410431861877441e-01 -5.5607956647872925e-01</leafValues></_></weakClassifiers></_>
    <!-- stage 30 -->
    <_>
      <maxWeakCount>5</maxWeakCount>
      <stageThreshold>-9.0024155378341675e-01</stageThreshold>
      <weakClassifiers>
        <_>
          <internalNodes>
            0 -1 80 1.5126643702387810e-02</internalNodes>
          <leafValues>
            -2.9411765933036804e-01 7.0952379703521729e-01</leafValues></_>
        <_>
          <internalNodes>
            0 -1 38 1.1090841144323349e-01</internalNodes>
          <leafValues>
            -1.1846700310707092e-01 8.1764131784439087e-01</leafValues></_>
        <_>
          <internalNodes>
            0 -1 12 3.8303211331367493e-02</internalNodes>
          <leafValues>
            -4.9306574463844299e-01 3.7396982312202454e-01</leafValues></_>
        <_>
          <internalNodes>
            0 -1 4 3.6339189857244492e-02</internalNodes>
          <leafValues>
            -3.6602899432182312e-01 5.3900486230850220e-01</leafValues></_>
        <_>
          <internalNodes>
            0 -1 27 1.2311482802033424e-02</internalNodes>
          <leafValues>
            2.8861996531486511e-01 -6.3220363855361938e-01</leafValues></_></weakClassifiers></_>
    <!-- stage 31 -->
    <_>
      <maxWeakCount>4</maxWeakCount>
      <stageThreshold>-8.3178907632827759e-01</stageThreshold>
      <weakClassifiers>
        <_>
          <internalNodes>
            0 -1 10 3.3315997570753098e-03</internalNodes>
          <leafValues>
            -4.2222222685813904e-01 7.4117648601531982e-01</leafValues></_>
        <_>
          <internalNodes>
            0 -1 11 7.4233636260032654e-02</internalNodes>
          <leafValues>
            -1.6681252419948578e-01 7.4156606197357178e-01</leafValues></_>
        <_>
          <internalNodes>
            0 -1 90 1.3356510549783707e-02</internalNodes>
          <leafValues>
            -6.4525198936462402e-01 3.8305348157882690e-01</leafValues></_>
        <_>
          <internalNodes>
            0 -1 24 1.6317971050739288e-02</internalNodes>
          <leafValues>
            2.4098907411098480e-01 -7.6090103387832642e-01</leafValues></_></weakClassifiers></_>
    <!-- stage 32 -->
    <_>
      <maxWeakCount>6</maxWeakCount>
      <stageThreshold>-1.6267339885234833e-01</stageThreshold>
      <weakClassifiers>
        <_>
          <internalNodes>
            0 -1 41 1.2425208464264870e-02</internalNodes>
          <leafValues>
            7.6412779092788696e-01 -1.8644067645072937e-01</leafValues></_>
        <_>
          <internalNodes>
            0 -1 66 8.8801793754100800e-03</internalNodes>
          <leafValues>
            4.8421341180801392e-01 -4.5959118008613586e-01</leafValues></_>
        <_>
          <internalNodes>
            0 -1 3 1.8461205065250397e-02</internalNodes>
          <leafValues>
            -4.5208930969238281e-01 3.9803174138069153e-01</leafValues></_>
        <_>
          <internalNodes>
            0 -1 56 3.9150036871433258e-02</internalNodes>
          <leafValues>
            -3.5724586248397827e-01 6.0479533672332764e-01</leafValues></_>
        <_>
          <internalNodes>
            0 -1 93 7.6919877901673317e-03</internalNodes>
          <leafValues>
            -8.2568758726119995e-01 2.0921011269092560e-01</leafValues></_>
        <_>
          <internalNodes>
            0 -1 18 1.8787590786814690e-02</internalNodes>
          <leafValues>
            -6.0750323534011841e-01 3.1769171357154846e-01</leafValues></_></weakClassifiers></_></stages>
  <features>
    <_>
      <rect>
        0 0 8 8 11</rect></_>
    <_>
      <rect>
        0 4 8 8 10</rect></_>
    <_>
      <rect>
        0 4 8 8 32</rect></_>
    <_>
      <rect>
        0 8 8 8 9</rect></_>
    <_>
      <rect>
        0 8 8 8 32</rect></_>
    <_>
      <rect>
        0 8 8 8 33</rect></_>
    <_>
      <rect>
        0 16 8 8 22</rect></_>
    <_>
      <rect>
        0 20 8 8 15</rect></_>
    <_>
      <rect>
        0 28 8 8 11</rect></_>
    <_>
      <rect>
        0 28 8 8 12</rect></_>
    <_>
      <rect>
        0 32 8 8 23</rect></_>
    <_>
      <rect>
        0 32 8 8 29</rect></_>
    <_>
      <rect>
        4 0 8 8 11</rect></_>
    <_>
      <rect>
        4 0 8 8 12</rect></_>
    <_>
      <rect>
        4 16 8 8 15</rect></_>
    <_>
      <rect>
        4 24 8 8 0</rect></_>
    <_>
      <rect>
        4 28 8 8 0</rect></_>
    <_>
      <rect>
        4 28 8 8 1</rect></_>
    <_>
      <rect>
        4 28 8 8 2</rect></_>
    <_>
      <rect>
        4 32 8 8 3</rect></_>
    <_>
      <rect>
        8 0 8 8 13</rect></_>
    <_>
      <rect>
        8 0 8 8 16</rect></_>
    <_>
      <rect>
        8 0 8 8 17</rect></_>
    <_>
      <rect>
        8 8 8 8 28</rect></_>
    <_>
      <rect>
        8 16 8 8 11</rect></_>
    <_>
      <rect>
        8 20 8 8 35</rect></_>
    <_>
      <rect>
        8 24 8 8 35</rect></_>
    <_>
      <rect>
        8 32 8 8 31</rect></_>
    <_>
      <rect>
        12 0 8 8 9</rect></_>
    <_>
      <rect>
        12 0 8 8 15</rect></_>
    <_>
      <rect>
        12 0 8 8 17</rect></_>
    <_>
      <rect>
        12 4 8 8 15</rect></_>
    <_>
      <rect>
        12 8 8 8 24</rect></_>
    <_>
      <rect>
        12 16 8 8 5</rect></_>
    <_>
      <rect>
        12 16 8 8 6</rect></_>
    <_>
      <rect>
        12 16 8 8 11</rect></_>
    <_>
      <rect>
        12 28 8 8 10</rect></_>
    <_>
      <rect>
        12 32 8 8 10</rect></_>
    <_>
      <rect>
        12 32 8 8 20</rect></_>
    <_>
      <rect>
        16 0 8 8 3</rect></_>
    <_>
      <rect>
        16 0 8 8 4</rect></_>
    <_>
      <rect>
        16 0 8 8 11</rect></_>
    <_>
      <rect>
        16 0 8 8 34</rect></_>
    <_>
      <rect>
        16 4 8 8 15</rect></_>
    <_>
      <rect>
        16 8 8 8 16</rect></_>
    <_>
      <rect>
        16 8 8 8 24</rect></_>
    <_>
      <rect>
        16 16 8 8 7</rect></_>
    <_>
      <rect>
        16 20 8 8 9</rect></_>
    <_>
      <rect>
        16 28 8 8 1</rect></_>
    <_>
      <rect>
        16 28 8 8 19</rect></_>
    <_>
      <rect>
        16 32 8 8 1</rect></_>
    <_>
      <rect>
        16 32 8 8 19</rect></_>
    <_>
      <rect>
        0 0 8 16 11</rect></_>
    <_>
      <rect>
        0 0 8 16 22</rect></_>
    <_>
      <rect>
        0 0 8 16 32</rect></_>
    <_>
      <rect>
        0 4 8 16 30</rect></_>
    <_>
      <rect>
        0 12 8 16 14</rect></_>
    <_>
      <rect>
        0 12 8 16 22</rect></_>
    <_>
      <rect>
        0 16 8 16 29</rect></_>
    <_>
      <rect>
        8 12 8 16 34</rect></_>
    <_>
      <rect>
        12 0 8 16 14</rect></_>
    <_>
      <rect>
        12 0 8 16 30</rect></_>
    <_>
      <rect>
        12 0 8 16 31</rect></_>
    <_>
      <rect>
        12 4 8 16 31</rect></_>
    <_>
      <rect>
        12 8 8 16 33</rect></_>
    <_>
      <rect>
        12 12 8 16 6</rect></_>
    <_>
      <rect>
        12 12 8 16 13</rect></_>
    <_>
      <rect>
        12 16 8 16 20</rect></_>
    <_>
      <rect>
        16 0 8 16 15</rect></_>
    <_>
      <rect>
        16 0 8 16 31</rect></_>
    <_>
      <rect>
        16 0 8 16 32</rect></_>
    <_>
      <rect>
        16 4 8 16 11</rect></_>
    <_>
      <rect>
        16 4 8 16 27</rect></_>
    <_>
      <rect>
        16 4 8 16 29</rect></_>
    <_>
      <rect>
        16 8 8 16 11</rect></_>
    <_>
      <rect>
        16 8 8 16 31</rect></_>
    <_>
      <rect>
        16 12 8 16 7</rect></_>
    <_>
      <rect>
        16 12 8 16 12</rect></_>
    <_>
      <rect>
        16 12 8 16 17</rect></_>
    <_>
      <rect>
        16 12 8 16 31</rect></_>
    <_>
      <rect>
        16 16 8 16 7</rect></_>
    <_>
      <rect>
        16 16 8 16 9</rect></_>
    <_>
      <rect>
        16 16 8 16 19</rect></_>
    <_>
      <rect>
        0 0 16 8 14</rect></_>
    <_>
      <rect>
        0 0 16 8 34</rect></_>
    <_>
      <rect>
        0 4 16 8 1</rect></_>
    <_>
      <rect>
        0 4 16 8 15</rect></_>
    <_>
      <rect>
        0 24 16 8 9</rect></_>
    <_>
      <rect>
        0 28 16 8 0</rect></_>
    <_>
      <rect>
        0 28 16 8 3</rect></_>
    <_>
      <rect>
        0 32 16 8 8</rect></_>
    <_>
      <rect>
        0 8 16 16 26</rect></_>
    <_>
      <rect>
        0 12 16 16 17</rect></_>
    <_>
      <rect>
        0 16 16 16 15</rect></_></features></cascade>
</opencv_storage>
