<?xml version="1.0"?>
<opencv_storage>
<!-- Created using Computer Vision System Toolbox(tm) for MATLAB(R) -->
<!-- Version 9.5.0.944444 (R2018b) -->
<!-- Compatible with OpenCV 3.4 -->
<cascade>
  <stageType>BOOST</stageType>
  <featureType>HOG</featureType>
  <height>49</height>
  <width>32</width>
  <stageParams>
    <boostType>GAB</boostType>
    <minHitRate>9.9500000476837158e-01</minHitRate>
    <maxFalseAlarm>5.0000000000000000e-01</maxFalseAlarm>
    <weightTrimRate>9.4999999999999996e-01</weightTrimRate>
    <maxDepth>1</maxDepth>
    <maxWeakCount>100</maxWeakCount></stageParams>
  <featureParams>
    <maxCatCount>0</maxCatCount>
    <featSize>36</featSize></featureParams>
  <stageNum>14</stageNum>
  <stages>
    <!-- stage 0 -->
    <_>
      <maxWeakCount>2</maxWeakCount>
      <stageThreshold>-1.1059933155775070e-01</stageThreshold>
      <weakClassifiers>
        <_>
          <internalNodes>
            0 -1 11 7.9506322741508484e-02</internalNodes>
          <leafValues>
            -9.3523317575454712e-01 8.8947367668151855e-01</leafValues></_>
        <_>
          <internalNodes>
            0 -1 39 6.2427561730146408e-02</internalNodes>
          <leafValues>
            -9.3872427940368652e-01 8.2463383674621582e-01</leafValues></_></weakClassifiers></_>
    <!-- stage 1 -->
    <_>
      <maxWeakCount>3</maxWeakCount>
      <stageThreshold>-1.2026323080062866e+00</stageThreshold>
      <weakClassifiers>
        <_>
          <internalNodes>
            0 -1 26 5.6500189006328583e-02</internalNodes>
          <leafValues>
            -8.7765955924987793e-01 6.8999999761581421e-01</leafValues></_>
        <_>
          <internalNodes>
            0 -1 44 6.6829644143581390e-02</internalNodes>
          <leafValues>
            -8.7935090065002441e-01 5.8575367927551270e-01</leafValues></_>
        <_>
          <internalNodes>
            0 -1 19 8.5087353363633156e-03</internalNodes>
          <leafValues>
            5.5437821149826050e-01 -8.6090642213821411e-01</leafValues></_></weakClassifiers></_>
    <!-- stage 2 -->
    <_>
      <maxWeakCount>3</maxWeakCount>
      <stageThreshold>-1.2078582048416138e+00</stageThreshold>
      <weakClassifiers>
        <_>
          <internalNodes>
            0 -1 8 5.3030770272016525e-02</internalNodes>
          <leafValues>
            -9.2203897237777710e-01 4.7628864645957947e-01</leafValues></_>
        <_>
          <internalNodes>
            0 -1 18 6.8630171008408070e-03</internalNodes>
          <leafValues>
            4.7417277097702026e-01 -9.0202224254608154e-01</leafValues></_>
        <_>
          <internalNodes>
            0 -1 3 5.2709031850099564e-02</internalNodes>
          <leafValues>
            -7.5999206304550171e-01 6.3549560308456421e-01</leafValues></_></weakClassifiers></_>
    <!-- stage 3 -->
    <_>
      <maxWeakCount>3</maxWeakCount>
      <stageThreshold>-9.2915230989456177e-01</stageThreshold>
      <weakClassifiers>
        <_>
          <internalNodes>
            0 -1 2 3.0696816742420197e-02</internalNodes>
          <leafValues>
            -8.9337176084518433e-01 5.1528382301330566e-01</leafValues></_>
        <_>
          <internalNodes>
            0 -1 12 8.5429064929485321e-02</internalNodes>
          <leafValues>
            -6.6973608732223511e-01 6.8074768781661987e-01</leafValues></_>
        <_>
          <internalNodes>
            0 -1 4 9.7401514649391174e-02</internalNodes>
          <leafValues>
            -6.4593261480331421e-01 6.3395559787750244e-01</leafValues></_></weakClassifiers></_>
    <!-- stage 4 -->
    <_>
      <maxWeakCount>3</maxWeakCount>
      <stageThreshold>-1.1080453395843506e+00</stageThreshold>
      <weakClassifiers>
        <_>
          <internalNodes>
            0 -1 20 4.7959223389625549e-02</internalNodes>
          <leafValues>
            -9.0237098932266235e-01 6.0459768772125244e-01</leafValues></_>
        <_>
          <internalNodes>
            0 -1 38 2.5983029976487160e-02</internalNodes>
          <leafValues>
            -7.6716238260269165e-01 5.3845083713531494e-01</leafValues></_>
        <_>
          <internalNodes>
            0 -1 44 8.2065962255001068e-02</internalNodes>
          <leafValues>
            -7.4321830272674561e-01 5.6148797273635864e-01</leafValues></_></weakClassifiers></_>
    <!-- stage 5 -->
    <_>
      <maxWeakCount>3</maxWeakCount>
      <stageThreshold>-1.0467233657836914e+00</stageThreshold>
      <weakClassifiers>
        <_>
          <internalNodes>
            0 -1 22 3.3450160175561905e-02</internalNodes>
          <leafValues>
            -8.4916198253631592e-01 5.1376146078109741e-01</leafValues></_>
        <_>
          <internalNodes>
            0 -1 26 6.9743886590003967e-02</internalNodes>
          <leafValues>
            -7.3349791765213013e-01 6.9073462486267090e-01</leafValues></_>
        <_>
          <internalNodes>
            0 -1 30 3.1128402799367905e-02</internalNodes>
          <leafValues>
            -8.2698690891265869e-01 5.4991841316223145e-01</leafValues></_></weakClassifiers></_>
    <!-- stage 6 -->
    <_>
      <maxWeakCount>3</maxWeakCount>
      <stageThreshold>-1.2239203453063965e+00</stageThreshold>
      <weakClassifiers>
        <_>
          <internalNodes>
            0 -1 31 3.3304169774055481e-02</internalNodes>
          <leafValues>
            -8.1792318820953369e-01 4.2538976669311523e-01</leafValues></_>
        <_>
          <internalNodes>
            0 -1 41 2.7986451983451843e-02</internalNodes>
          <leafValues>
            -7.7267181873321533e-01 4.5929962396621704e-01</leafValues></_>
        <_>
          <internalNodes>
            0 -1 0 6.1621479690074921e-02</internalNodes>
          <leafValues>
            -8.7663823366165161e-01 4.1853857040405273e-01</leafValues></_></weakClassifiers></_>
    <!-- stage 7 -->
    <_>
      <maxWeakCount>5</maxWeakCount>
      <stageThreshold>-1.5070725679397583e+00</stageThreshold>
      <weakClassifiers>
        <_>
          <internalNodes>
            0 -1 11 1.2981906533241272e-01</internalNodes>
          <leafValues>
            -7.7427822351455688e-01 5.2820515632629395e-01</leafValues></_>
        <_>
          <internalNodes>
            0 -1 41 2.1669277921319008e-02</internalNodes>
          <leafValues>
            -8.7407785654067993e-01 4.0139937400817871e-01</leafValues></_>
        <_>
          <internalNodes>
            0 -1 9 8.1464238464832306e-03</internalNodes>
          <leafValues>
            4.0316712856292725e-01 -8.0698066949844360e-01</leafValues></_>
        <_>
          <internalNodes>
            0 -1 37 3.6723352968692780e-02</internalNodes>
          <leafValues>
            -7.2155660390853882e-01 3.9519542455673218e-01</leafValues></_>
        <_>
          <internalNodes>
            0 -1 15 4.1820663958787918e-02</internalNodes>
          <leafValues>
            -5.4679483175277710e-01 5.5306875705718994e-01</leafValues></_></weakClassifiers></_>
    <!-- stage 8 -->
    <_>
      <maxWeakCount>5</maxWeakCount>
      <stageThreshold>-1.3748654127120972e+00</stageThreshold>
      <weakClassifiers>
        <_>
          <internalNodes>
            0 -1 11 1.0743771493434906e-01</internalNodes>
          <leafValues>
            -8.3660131692886353e-01 2.3703703284263611e-01</leafValues></_>
        <_>
          <internalNodes>
            0 -1 43 2.2303722798824310e-02</internalNodes>
          <leafValues>
            -8.2147014141082764e-01 3.2731318473815918e-01</leafValues></_>
        <_>
          <internalNodes>
            0 -1 5 3.6272149533033371e-02</internalNodes>
          <leafValues>
            -6.9178855419158936e-01 3.8201993703842163e-01</leafValues></_>
        <_>
          <internalNodes>
            0 -1 35 3.7681758403778076e-02</internalNodes>
          <leafValues>
            -4.7690552473068237e-01 6.7755854129791260e-01</leafValues></_>
        <_>
          <internalNodes>
            0 -1 21 3.3546544611454010e-02</internalNodes>
          <leafValues>
            -7.7069169282913208e-01 3.7300449609756470e-01</leafValues></_></weakClassifiers></_>
    <!-- stage 9 -->
    <_>
      <maxWeakCount>5</maxWeakCount>
      <stageThreshold>-1.2666975259780884e+00</stageThreshold>
      <weakClassifiers>
        <_>
          <internalNodes>
            0 -1 12 9.4137452542781830e-02</internalNodes>
          <leafValues>
            -7.1841156482696533e-01 6.6355139017105103e-01</leafValues></_>
        <_>
          <internalNodes>
            0 -1 23 5.3029172122478485e-03</internalNodes>
          <leafValues>
            4.9839869141578674e-01 -7.9618626832962036e-01</leafValues></_>
        <_>
          <internalNodes>
            0 -1 47 4.9230840057134628e-02</internalNodes>
          <leafValues>
            -7.2130489349365234e-01 4.4719868898391724e-01</leafValues></_>
        <_>
          <internalNodes>
            0 -1 14 4.4171772897243500e-02</internalNodes>
          <leafValues>
            -5.2439749240875244e-01 6.1003190279006958e-01</leafValues></_>
        <_>
          <internalNodes>
            0 -1 48 3.6757387220859528e-02</internalNodes>
          <leafValues>
            -1. 3.5917326807975769e-01</leafValues></_></weakClassifiers></_>
    <!-- stage 10 -->
    <_>
      <maxWeakCount>7</maxWeakCount>
      <stageThreshold>-1.6732672452926636e+00</stageThreshold>
      <weakClassifiers>
        <_>
          <internalNodes>
            0 -1 8 6.7907541990280151e-02</internalNodes>
          <leafValues>
            -8.3899819850921631e-01 1.4333894848823547e-01</leafValues></_>
        <_>
          <internalNodes>
            0 -1 15 3.3628910779953003e-02</internalNodes>
          <leafValues>
            -6.5488624572753906e-01 3.6570927500724792e-01</leafValues></_>
        <_>
          <internalNodes>
            0 -1 33 1.7228879034519196e-02</internalNodes>
          <leafValues>
            3.2539579272270203e-01 -7.5938105583190918e-01</leafValues></_>
        <_>
          <internalNodes>
            0 -1 25 4.0798224508762360e-02</internalNodes>
          <leafValues>
            -5.9601634740829468e-01 4.7621640563011169e-01</leafValues></_>
        <_>
          <internalNodes>
            0 -1 46 1.7776019871234894e-02</internalNodes>
          <leafValues>
            -5.5019223690032959e-01 4.3486565351486206e-01</leafValues></_>
        <_>
          <internalNodes>
            0 -1 28 5.4398529231548309e-02</internalNodes>
          <leafValues>
            -5.4024231433868408e-01 5.4262220859527588e-01</leafValues></_>
        <_>
          <internalNodes>
            0 -1 24 3.2100968062877655e-02</internalNodes>
          <leafValues>
            -9.2197543382644653e-01 2.6351636648178101e-01</leafValues></_></weakClassifiers></_>
    <!-- stage 11 -->
    <_>
      <maxWeakCount>6</maxWeakCount>
      <stageThreshold>-1.0323952436447144e+00</stageThreshold>
      <weakClassifiers>
        <_>
          <internalNodes>
            0 -1 7 2.1316338330507278e-02</internalNodes>
          <leafValues>
            3.9307534694671631e-01 -7.3750001192092896e-01</leafValues></_>
        <_>
          <internalNodes>
            0 -1 36 1.7810493707656860e-02</internalNodes>
          <leafValues>
            -6.9403427839279175e-01 3.5995286703109741e-01</leafValues></_>
        <_>
          <internalNodes>
            0 -1 16 1.6853567212820053e-02</internalNodes>
          <leafValues>
            -6.4345449209213257e-01 4.1950216889381409e-01</leafValues></_>
        <_>
          <internalNodes>
            0 -1 32 9.0763717889785767e-02</internalNodes>
          <leafValues>
            -6.4564198255538940e-01 4.3677508831024170e-01</leafValues></_>
        <_>
          <internalNodes>
            0 -1 40 1.5098604373633862e-02</internalNodes>
          <leafValues>
            -7.5838935375213623e-01 3.3176839351654053e-01</leafValues></_>
        <_>
          <internalNodes>
            0 -1 17 6.1563458293676376e-03</internalNodes>
          <leafValues>
            3.6269760131835938e-01 -7.6047664880752563e-01</leafValues></_></weakClassifiers></_>
    <!-- stage 12 -->
    <_>
      <maxWeakCount>6</maxWeakCount>
      <stageThreshold>-1.1255190372467041e+00</stageThreshold>
      <weakClassifiers>
        <_>
          <internalNodes>
            0 -1 29 1.1206164956092834e-02</internalNodes>
          <leafValues>
            5.2147239446640015e-01 -8.0645161867141724e-01</leafValues></_>
        <_>
          <internalNodes>
            0 -1 10 2.4557013064622879e-02</internalNodes>
          <leafValues>
            -7.1321171522140503e-01 4.0412524342536926e-01</leafValues></_>
        <_>
          <internalNodes>
            0 -1 0 8.7146319448947906e-02</internalNodes>
          <leafValues>
            -5.8951181173324585e-01 4.7209376096725464e-01</leafValues></_>
        <_>
          <internalNodes>
            0 -1 45 3.0164290219545364e-02</internalNodes>
          <leafValues>
            2.7230995893478394e-01 -8.6412727832794189e-01</leafValues></_>
        <_>
          <internalNodes>
            0 -1 34 3.3563159406185150e-02</internalNodes>
          <leafValues>
            2.1196228265762329e-01 -9.2020320892333984e-01</leafValues></_>
        <_>
          <internalNodes>
            0 -1 42 1.7991926521062851e-02</internalNodes>
          <leafValues>
            -8.2854026556015015e-01 1.8526136875152588e-01</leafValues></_></weakClassifiers></_>
    <!-- stage 13 -->
    <_>
      <maxWeakCount>5</maxWeakCount>
      <stageThreshold>1.1469548195600510e-01</stageThreshold>
      <weakClassifiers>
        <_>
          <internalNodes>
            0 -1 27 3.7368379533290863e-02</internalNodes>
          <leafValues>
            -5.0561797618865967e-01 7.3205739259719849e-01</leafValues></_>
        <_>
          <internalNodes>
            0 -1 12 5.7103771716356277e-02</internalNodes>
          <leafValues>
            -5.1590442657470703e-01 5.8580988645553589e-01</leafValues></_>
        <_>
          <internalNodes>
            0 -1 1 1.8437793478369713e-02</internalNodes>
          <leafValues>
            3.5740748047828674e-01 -8.2702374458312988e-01</leafValues></_>
        <_>
          <internalNodes>
            0 -1 6 1.6172114759683609e-02</internalNodes>
          <leafValues>
            -8.0409461259841919e-01 3.3755099773406982e-01</leafValues></_>
        <_>
          <internalNodes>
            0 -1 13 1.0428015142679214e-02</internalNodes>
          <leafValues>
            4.4125938415527344e-01 -5.4557543992996216e-01</leafValues></_></weakClassifiers></_></stages>
  <features>
    <_>
      <rect>
        0 0 8 8 1</rect></_>
    <_>
      <rect>
        0 0 8 8 9</rect></_>
    <_>
      <rect>
        0 0 8 8 12</rect></_>
    <_>
      <rect>
        0 0 8 8 18</rect></_>
    <_>
      <rect>
        0 4 8 8 1</rect></_>
    <_>
      <rect>
        0 20 8 8 17</rect></_>
    <_>
      <rect>
        0 24 8 8 15</rect></_>
    <_>
      <rect>
        4 0 8 8 0</rect></_>
    <_>
      <rect>
        4 0 8 8 2</rect></_>
    <_>
      <rect>
        4 0 8 8 8</rect></_>
    <_>
      <rect>
        4 16 8 8 11</rect></_>
    <_>
      <rect>
        4 32 8 8 6</rect></_>
    <_>
      <rect>
        4 32 8 8 32</rect></_>
    <_>
      <rect>
        12 16 8 8 7</rect></_>
    <_>
      <rect>
        12 24 8 8 15</rect></_>
    <_>
      <rect>
        16 0 8 8 5</rect></_>
    <_>
      <rect>
        16 32 8 8 27</rect></_>
    <_>
      <rect>
        0 0 8 16 6</rect></_>
    <_>
      <rect>
        0 0 8 16 20</rect></_>
    <_>
      <rect>
        0 0 8 16 22</rect></_>
    <_>
      <rect>
        0 4 8 16 25</rect></_>
    <_>
      <rect>
        0 8 8 16 8</rect></_>
    <_>
      <rect>
        0 8 8 16 9</rect></_>
    <_>
      <rect>
        0 12 8 16 3</rect></_>
    <_>
      <rect>
        0 12 8 16 8</rect></_>
    <_>
      <rect>
        0 12 8 16 17</rect></_>
    <_>
      <rect>
        0 16 8 16 7</rect></_>
    <_>
      <rect>
        4 0 8 16 2</rect></_>
    <_>
      <rect>
        4 8 8 16 10</rect></_>
    <_>
      <rect>
        4 12 8 16 4</rect></_>
    <_>
      <rect>
        4 12 8 16 10</rect></_>
    <_>
      <rect>
        4 12 8 16 11</rect></_>
    <_>
      <rect>
        4 12 8 16 24</rect></_>
    <_>
      <rect>
        8 16 8 16 26</rect></_>
    <_>
      <rect>
        12 16 8 16 25</rect></_>
    <_>
      <rect>
        16 0 8 16 20</rect></_>
    <_>
      <rect>
        16 4 8 16 23</rect></_>
    <_>
      <rect>
        16 12 8 16 1</rect></_>
    <_>
      <rect>
        0 0 16 8 14</rect></_>
    <_>
      <rect>
        0 4 16 8 1</rect></_>
    <_>
      <rect>
        0 4 16 8 15</rect></_>
    <_>
      <rect>
        0 24 16 8 16</rect></_>
    <_>
      <rect>
        0 24 16 8 17</rect></_>
    <_>
      <rect>
        0 28 16 8 16</rect></_>
    <_>
      <rect>
        0 28 16 8 24</rect></_>
    <_>
      <rect>
        0 28 16 8 31</rect></_>
    <_>
      <rect>
        0 32 16 8 9</rect></_>
    <_>
      <rect>
        0 8 16 16 0</rect></_>
    <_>
      <rect>
        0 16 16 16 24</rect></_></features></cascade>
</opencv_storage>
