<?xml version="1.0"?>
<opencv_storage>
<!-- Created using Computer Vision System Toolbox(tm) for MATLAB(R) -->
<!-- Version 9.5.0.944444 (R2018b) -->
<!-- Compatible with OpenCV 3.4 -->
<cascade>
  <stageType>BOOST</stageType>
  <featureType>HOG</featureType>
  <height>49</height>
  <width>32</width>
  <stageParams>
    <boostType>GAB</boostType>
    <minHitRate>9.9500000476837158e-01</minHitRate>
    <maxFalseAlarm>3.0000001192092896e-01</maxFalseAlarm>
    <weightTrimRate>9.4999999999999996e-01</weightTrimRate>
    <maxDepth>1</maxDepth>
    <maxWeakCount>100</maxWeakCount></stageParams>
  <featureParams>
    <maxCatCount>0</maxCatCount>
    <featSize>36</featSize></featureParams>
  <stageNum>8</stageNum>
  <stages>
    <!-- stage 0 -->
    <_>
      <maxWeakCount>2</maxWeakCount>
      <stageThreshold>-1.1059933155775070e-01</stageThreshold>
      <weakClassifiers>
        <_>
          <internalNodes>
            0 -1 9 7.9506322741508484e-02</internalNodes>
          <leafValues>
            -9.3523317575454712e-01 8.8947367668151855e-01</leafValues></_>
        <_>
          <internalNodes>
            0 -1 38 6.2427561730146408e-02</internalNodes>
          <leafValues>
            -9.3872427940368652e-01 8.2463383674621582e-01</leafValues></_></weakClassifiers></_>
    <!-- stage 1 -->
    <_>
      <maxWeakCount>5</maxWeakCount>
      <stageThreshold>-1.4381995201110840e+00</stageThreshold>
      <weakClassifiers>
        <_>
          <internalNodes>
            0 -1 28 5.6500189006328583e-02</internalNodes>
          <leafValues>
            -8.7765955924987793e-01 6.8999999761581421e-01</leafValues></_>
        <_>
          <internalNodes>
            0 -1 44 6.6829644143581390e-02</internalNodes>
          <leafValues>
            -8.7935090065002441e-01 5.8575367927551270e-01</leafValues></_>
        <_>
          <internalNodes>
            0 -1 22 8.5087353363633156e-03</internalNodes>
          <leafValues>
            5.5437821149826050e-01 -8.6090642213821411e-01</leafValues></_>
        <_>
          <internalNodes>
            0 -1 5 6.6532343626022339e-02</internalNodes>
          <leafValues>
            -6.7819511890411377e-01 6.7602008581161499e-01</leafValues></_>
        <_>
          <internalNodes>
            0 -1 24 6.4012072980403900e-03</internalNodes>
          <leafValues>
            4.4262781739234924e-01 -8.7030011415481567e-01</leafValues></_></weakClassifiers></_>
    <!-- stage 2 -->
    <_>
      <maxWeakCount>6</maxWeakCount>
      <stageThreshold>-1.0398781299591064e+00</stageThreshold>
      <weakClassifiers>
        <_>
          <internalNodes>
            0 -1 17 4.1732497513294220e-02</internalNodes>
          <leafValues>
            -7.9434448480606079e-01 6.2566846609115601e-01</leafValues></_>
        <_>
          <internalNodes>
            0 -1 6 3.4902900457382202e-02</internalNodes>
          <leafValues>
            -7.9803442955017090e-01 5.5329114198684692e-01</leafValues></_>
        <_>
          <internalNodes>
            0 -1 11 2.9735576361417770e-02</internalNodes>
          <leafValues>
            -7.4366861581802368e-01 5.6870579719543457e-01</leafValues></_>
        <_>
          <internalNodes>
            0 -1 33 3.1049385666847229e-02</internalNodes>
          <leafValues>
            -6.6338163614273071e-01 5.8536970615386963e-01</leafValues></_>
        <_>
          <internalNodes>
            0 -1 2 5.2313834428787231e-02</internalNodes>
          <leafValues>
            -9.4201099872589111e-01 4.5242279767990112e-01</leafValues></_>
        <_>
          <internalNodes>
            0 -1 37 1.4431653544306755e-02</internalNodes>
          <leafValues>
            -8.7795692682266235e-01 3.4043630957603455e-01</leafValues></_></weakClassifiers></_>
    <!-- stage 3 -->
    <_>
      <maxWeakCount>7</maxWeakCount>
      <stageThreshold>-1.5280673503875732e+00</stageThreshold>
      <weakClassifiers>
        <_>
          <internalNodes>
            0 -1 40 6.2330290675163269e-02</internalNodes>
          <leafValues>
            -8.2550334930419922e-01 5.6756758689880371e-01</leafValues></_>
        <_>
          <internalNodes>
            0 -1 23 8.9332312345504761e-03</internalNodes>
          <leafValues>
            4.7415697574615479e-01 -8.2357597351074219e-01</leafValues></_>
        <_>
          <internalNodes>
            0 -1 34 3.8720421493053436e-02</internalNodes>
          <leafValues>
            -5.6413441896438599e-01 5.9011334180831909e-01</leafValues></_>
        <_>
          <internalNodes>
            0 -1 45 9.1750815510749817e-02</internalNodes>
          <leafValues>
            -6.4770227670669556e-01 5.1659744977951050e-01</leafValues></_>
        <_>
          <internalNodes>
            0 -1 43 2.3646686226129532e-02</internalNodes>
          <leafValues>
            -5.6399619579315186e-01 4.5798170566558838e-01</leafValues></_>
        <_>
          <internalNodes>
            0 -1 12 9.4650238752365112e-03</internalNodes>
          <leafValues>
            4.0725836157798767e-01 -7.9522466659545898e-01</leafValues></_>
        <_>
          <internalNodes>
            0 -1 15 2.7130935341119766e-02</internalNodes>
          <leafValues>
            -7.7039152383804321e-01 3.2528680562973022e-01</leafValues></_></weakClassifiers></_>
    <!-- stage 4 -->
    <_>
      <maxWeakCount>9</maxWeakCount>
      <stageThreshold>-1.4743658304214478e+00</stageThreshold>
      <weakClassifiers>
        <_>
          <internalNodes>
            0 -1 10 7.0894390344619751e-02</internalNodes>
          <leafValues>
            -7.8988325595855713e-01 5.9055119752883911e-01</leafValues></_>
        <_>
          <internalNodes>
            0 -1 35 5.4363980889320374e-02</internalNodes>
          <leafValues>
            -7.8715157508850098e-01 4.8377618193626404e-01</leafValues></_>
        <_>
          <internalNodes>
            0 -1 26 2.6878125965595245e-02</internalNodes>
          <leafValues>
            -6.5297156572341919e-01 4.5392432808876038e-01</leafValues></_>
        <_>
          <internalNodes>
            0 -1 25 3.2377433031797409e-02</internalNodes>
          <leafValues>
            -8.0415010452270508e-01 3.4584087133407593e-01</leafValues></_>
        <_>
          <internalNodes>
            0 -1 19 2.0176779478788376e-02</internalNodes>
          <leafValues>
            4.0697851777076721e-01 -6.4983052015304565e-01</leafValues></_>
        <_>
          <internalNodes>
            0 -1 47 5.2633762359619141e-02</internalNodes>
          <leafValues>
            -8.8225227594375610e-01 2.6394113898277283e-01</leafValues></_>
        <_>
          <internalNodes>
            0 -1 29 3.1156845390796661e-02</internalNodes>
          <leafValues>
            -7.8002148866653442e-01 3.7988987565040588e-01</leafValues></_>
        <_>
          <internalNodes>
            0 -1 2 6.0242392122745514e-02</internalNodes>
          <leafValues>
            -8.9834672212600708e-01 2.4057579040527344e-01</leafValues></_>
        <_>
          <internalNodes>
            0 -1 8 1.1619977653026581e-02</internalNodes>
          <leafValues>
            2.7832573652267456e-01 -7.5202918052673340e-01</leafValues></_></weakClassifiers></_>
    <!-- stage 5 -->
    <_>
      <maxWeakCount>9</maxWeakCount>
      <stageThreshold>-1.7442725896835327e+00</stageThreshold>
      <weakClassifiers>
        <_>
          <internalNodes>
            0 -1 9 1.3034933805465698e-01</internalNodes>
          <leafValues>
            -7.6066023111343384e-01 3.9764705300331116e-01</leafValues></_>
        <_>
          <internalNodes>
            0 -1 14 1.7213078215718269e-02</internalNodes>
          <leafValues>
            -7.8799468278884888e-01 3.4440487623214722e-01</leafValues></_>
        <_>
          <internalNodes>
            0 -1 30 2.6912067085504532e-02</internalNodes>
          <leafValues>
            -6.5315335988998413e-01 4.2095169425010681e-01</leafValues></_>
        <_>
          <internalNodes>
            0 -1 27 4.6745307743549347e-02</internalNodes>
          <leafValues>
            -4.2096197605133057e-01 6.2665641307830811e-01</leafValues></_>
        <_>
          <internalNodes>
            0 -1 0 1.6427502036094666e-02</internalNodes>
          <leafValues>
            3.3660104870796204e-01 -7.0496141910552979e-01</leafValues></_>
        <_>
          <internalNodes>
            0 -1 41 2.3509941995143890e-02</internalNodes>
          <leafValues>
            -6.8168228864669800e-01 3.8754412531852722e-01</leafValues></_>
        <_>
          <internalNodes>
            0 -1 44 7.5201824307441711e-02</internalNodes>
          <leafValues>
            -6.9485509395599365e-01 2.9593670368194580e-01</leafValues></_>
        <_>
          <internalNodes>
            0 -1 38 9.2977069318294525e-02</internalNodes>
          <leafValues>
            -5.3069037199020386e-01 3.9754924178123474e-01</leafValues></_>
        <_>
          <internalNodes>
            0 -1 13 2.9008794575929642e-02</internalNodes>
          <leafValues>
            3.0478352308273315e-01 -7.4759316444396973e-01</leafValues></_></weakClassifiers></_>
    <!-- stage 6 -->
    <_>
      <maxWeakCount>9</maxWeakCount>
      <stageThreshold>-1.0746656656265259e+00</stageThreshold>
      <weakClassifiers>
        <_>
          <internalNodes>
            0 -1 10 9.1903671622276306e-02</internalNodes>
          <leafValues>
            -7.1280723810195923e-01 4.4063323736190796e-01</leafValues></_>
        <_>
          <internalNodes>
            0 -1 46 4.9280583858489990e-02</internalNodes>
          <leafValues>
            -7.3857593536376953e-01 4.6581372618675232e-01</leafValues></_>
        <_>
          <internalNodes>
            0 -1 21 6.5077519975602627e-03</internalNodes>
          <leafValues>
            3.1154739856719971e-01 -8.0198550224304199e-01</leafValues></_>
        <_>
          <internalNodes>
            0 -1 18 2.0848665386438370e-02</internalNodes>
          <leafValues>
            -6.9663929939270020e-01 3.3723375201225281e-01</leafValues></_>
        <_>
          <internalNodes>
            0 -1 36 1.1540810577571392e-02</internalNodes>
          <leafValues>
            4.0792706608772278e-01 -6.3601624965667725e-01</leafValues></_>
        <_>
          <internalNodes>
            0 -1 4 9.5929995179176331e-02</internalNodes>
          <leafValues>
            -6.2197899818420410e-01 3.7667223811149597e-01</leafValues></_>
        <_>
          <internalNodes>
            0 -1 20 1.6772951930761337e-02</internalNodes>
          <leafValues>
            -6.0910123586654663e-01 4.1085264086723328e-01</leafValues></_>
        <_>
          <internalNodes>
            0 -1 32 2.0910620689392090e-02</internalNodes>
          <leafValues>
            -6.7757117748260498e-01 2.5485295057296753e-01</leafValues></_>
        <_>
          <internalNodes>
            0 -1 15 3.4072715789079666e-02</internalNodes>
          <leafValues>
            -6.2206876277923584e-01 3.5544779896736145e-01</leafValues></_></weakClassifiers></_>
    <!-- stage 7 -->
    <_>
      <maxWeakCount>9</maxWeakCount>
      <stageThreshold>-8.0784577131271362e-01</stageThreshold>
      <weakClassifiers>
        <_>
          <internalNodes>
            0 -1 1 3.7139795720577240e-02</internalNodes>
          <leafValues>
            -7.0312500000000000e-01 5.8351409435272217e-01</leafValues></_>
        <_>
          <internalNodes>
            0 -1 7 2.3054083809256554e-02</internalNodes>
          <leafValues>
            -6.2726211547851563e-01 4.0688693523406982e-01</leafValues></_>
        <_>
          <internalNodes>
            0 -1 28 6.9065347313880920e-02</internalNodes>
          <leafValues>
            -5.0416433811187744e-01 5.6386321783065796e-01</leafValues></_>
        <_>
          <internalNodes>
            0 -1 42 9.8998416215181351e-03</internalNodes>
          <leafValues>
            -8.8240319490432739e-01 2.5826540589332581e-01</leafValues></_>
        <_>
          <internalNodes>
            0 -1 44 8.2916378974914551e-02</internalNodes>
          <leafValues>
            -6.6231399774551392e-01 2.8674939274787903e-01</leafValues></_>
        <_>
          <internalNodes>
            0 -1 31 3.4128122031688690e-02</internalNodes>
          <leafValues>
            2.9518091678619385e-01 -7.9057008028030396e-01</leafValues></_>
        <_>
          <internalNodes>
            0 -1 3 2.4967454373836517e-02</internalNodes>
          <leafValues>
            -7.1716129779815674e-01 2.5343585014343262e-01</leafValues></_>
        <_>
          <internalNodes>
            0 -1 16 4.2271628975868225e-02</internalNodes>
          <leafValues>
            -5.3545588254928589e-01 4.3223446607589722e-01</leafValues></_>
        <_>
          <internalNodes>
            0 -1 39 1.6356792300939560e-02</internalNodes>
          <leafValues>
            -7.8246158361434937e-01 2.3747386038303375e-01</leafValues></_></weakClassifiers></_></stages>
  <features>
    <_>
      <rect>
        0 0 8 8 9</rect></_>
    <_>
      <rect>
        0 0 8 8 18</rect></_>
    <_>
      <rect>
        0 4 8 8 1</rect></_>
    <_>
      <rect>
        0 20 8 8 17</rect></_>
    <_>
      <rect>
        0 28 8 8 33</rect></_>
    <_>
      <rect>
        4 0 8 8 2</rect></_>
    <_>
      <rect>
        4 8 8 8 28</rect></_>
    <_>
      <rect>
        4 8 8 8 29</rect></_>
    <_>
      <rect>
        4 16 8 8 19</rect></_>
    <_>
      <rect>
        4 32 8 8 6</rect></_>
    <_>
      <rect>
        4 32 8 8 32</rect></_>
    <_>
      <rect>
        8 0 8 8 3</rect></_>
    <_>
      <rect>
        8 16 8 8 5</rect></_>
    <_>
      <rect>
        8 20 8 8 26</rect></_>
    <_>
      <rect>
        8 28 8 8 14</rect></_>
    <_>
      <rect>
        12 0 8 8 4</rect></_>
    <_>
      <rect>
        12 24 8 8 15</rect></_>
    <_>
      <rect>
        16 0 8 8 5</rect></_>
    <_>
      <rect>
        16 0 8 8 19</rect></_>
    <_>
      <rect>
        16 16 8 8 31</rect></_>
    <_>
      <rect>
        16 32 8 8 27</rect></_>
    <_>
      <rect>
        0 0 8 16 20</rect></_>
    <_>
      <rect>
        0 0 8 16 22</rect></_>
    <_>
      <rect>
        0 4 8 16 4</rect></_>
    <_>
      <rect>
        0 4 8 16 21</rect></_>
    <_>
      <rect>
        0 8 8 16 8</rect></_>
    <_>
      <rect>
        0 8 8 16 9</rect></_>
    <_>
      <rect>
        0 12 8 16 17</rect></_>
    <_>
      <rect>
        0 16 8 16 7</rect></_>
    <_>
      <rect>
        4 12 8 16 10</rect></_>
    <_>
      <rect>
        4 16 8 16 11</rect></_>
    <_>
      <rect>
        8 16 8 16 25</rect></_>
    <_>
      <rect>
        12 8 8 16 35</rect></_>
    <_>
      <rect>
        12 16 8 16 15</rect></_>
    <_>
      <rect>
        16 12 8 16 2</rect></_>
    <_>
      <rect>
        0 0 16 8 2</rect></_>
    <_>
      <rect>
        0 0 16 8 8</rect></_>
    <_>
      <rect>
        0 0 16 8 15</rect></_>
    <_>
      <rect>
        0 4 16 8 1</rect></_>
    <_>
      <rect>
        0 4 16 8 15</rect></_>
    <_>
      <rect>
        0 24 16 8 7</rect></_>
    <_>
      <rect>
        0 24 16 8 16</rect></_>
    <_>
      <rect>
        0 28 16 8 10</rect></_>
    <_>
      <rect>
        0 28 16 8 16</rect></_>
    <_>
      <rect>
        0 28 16 8 24</rect></_>
    <_>
      <rect>
        0 32 16 8 6</rect></_>
    <_>
      <rect>
        0 8 16 16 0</rect></_>
    <_>
      <rect>
        0 16 16 16 24</rect></_></features></cascade>
</opencv_storage>
